{"learner":{"attributes":{"best_iteration":"99","best_ntree_limit":"100","scikit_learn":"{\"use_label_encoder\": null, \"n_estimators\": 100, \"objective\": \"multi:softprob\", \"max_depth\": null, \"max_leaves\": null, \"max_bin\": null, \"grow_policy\": null, \"learning_rate\": null, \"verbosity\": null, \"booster\": null, \"tree_method\": null, \"gamma\": null, \"min_child_weight\": null, \"max_delta_step\": null, \"subsample\": null, \"sampling_method\": null, \"colsample_bytree\": null, \"colsample_bylevel\": null, \"colsample_bynode\": null, \"reg_alpha\": null, \"reg_lambda\": null, \"scale_pos_weight\": null, \"base_score\": null, \"missing\": NaN, \"num_parallel_tree\": null, \"random_state\": null, \"n_jobs\": null, \"monotone_constraints\": null, \"interaction_constraints\": null, \"importance_type\": null, \"gpu_id\": null, \"validate_parameters\": null, \"predictor\": null, \"enable_categorical\": false, \"feature_types\": null, \"max_cat_to_onehot\": null, \"max_cat_threshold\": null, \"eval_metric\": null, \"early_stopping_rounds\": null, \"callbacks\": null, \"classes_\": [0, 1, 2], \"n_classes_\": 3, \"_estimator_type\": \"classifier\"}"},"feature_names":[],"feature_types":[],"gradient_booster":{"model":{"gbtree_model_param":{"num_parallel_tree":"1","num_trees":"300","size_leaf_vector":"0"},"tree_info":[0,1,2,0,1,2,0,1,2,0,1,2,0,1,2,0,1,2,0,1,2,0,1,2,0,1,2,0,1,2,0,1,2,0,1,2,0,1,2,0,1,2,0,1,2,0,1,2,0,1,2,0,1,2,0,1,2,0,1,2,0,1,2,0,1,2,0,1,2,0,1,2,0,1,2,0,1,2,0,1,2,0,1,2,0,1,2,0,1,2,0,1,2,0,1,2,0,1,2,0,1,2,0,1,2,0,1,2,0,1,2,0,1,2,0,1,2,0,1,2,0,1,2,0,1,2,0,1,2,0,1,2,0,1,2,0,1,2,0,1,2,0,1,2,0,1,2,0,1,2,0,1,2,0,1,2,0,1,2,0,1,2,0,1,2,0,1,2,0,1,2,0,1,2,0,1,2,0,1,2,0,1,2,0,1,2,0,1,2,0,1,2,0,1,2,0,1,2,0,1,2,0,1,2,0,1,2,0,1,2,0,1,2,0,1,2,0,1,2,0,1,2,0,1,2,0,1,2,0,1,2,0,1,2,0,1,2,0,1,2,0,1,2,0,1,2,0,1,2,0,1,2,0,1,2,0,1,2,0,1,2,0,1,2,0,1,2,0,1,2,0,1,2,0,1,2,0,1,2,0,1,2,0,1,2,0,1,2,0,1,2,0,1,2,0,1,2,0,1,2],"trees":[{"base_weights":[-7.614218E-2,-5.172414E-1,9.836065E-1,8.571428E-1,-6.992482E-1,-2.5544848E-8,1.2244898E0],"categories":[],"categories_nodes":[],"categories_segments":[],"categories_sizes":[],"default_left":[1,1,1,0,0,0,0],"id":0,"left_children":[1,3,5,-1,-1,-1,-1],"loss_changes":[1.0740818E1,4.6295056E0,1.6058879E0,0E0,0E0,0E0,0E0],"parents":[2147483647,0,0,1,1,2,2],"right_children":[2,4,6,-1,-1,-1,-1],"split_conditions":[-2.0405312E-1,-1.4757314E-1,-8.156024E-1,2.5714284E-1,-2.0977446E-1,-7.663455E-9,3.6734694E-1],"split_indices":[568,190,14,0,0,0,0],"split_type":[0,0,0,0,0,0,0],"sum_hessian":[2.0888887E1,1.5111111E1,5.7777777E0,1.3333333E0,1.3777777E1,1.3333333E0,4.444444E0],"tree_param":{"num_deleted":"0","num_feature":"768","num_nodes":"7","size_leaf_vector":"0"}},{"base_weights":[-3.0456897E-2,-4.630873E-1,1.1052631E0,-6.992482E-1,9.6E-1],"categories":[],"categories_nodes":[],"categories_segments":[],"categories_sizes":[],"default_left":[1,1,0,0,0],"id":1,"left_children":[1,3,-1,-1,-1],"loss_changes":[1.1266872E1,6.2352285E0,0E0,0E0,0E0],"parents":[2147483647,0,0,1,1],"right_children":[2,4,-1,-1,-1],"split_conditions":[8.4578764E-1,8.1944275E-1,3.3157894E-1,-2.0977446E-1,2.8800002E-1],"split_indices":[661,47,0,0,0],"split_type":[0,0,0,0,0],"sum_hessian":[2.0888887E1,1.5555554E1,5.333333E0,1.3777777E1,1.7777777E0],"tree_param":{"num_deleted":"0","num_feature":"768","num_nodes":"5","size_leaf_vector":"0"}},{"base_weights":[1.0659894E-1,9.438202E-1,-5.3846157E-1,-4.8000002E-1,1.3150685E0,-6.8571436E-1,4.285714E-1],"categories":[],"categories_nodes":[],"categories_segments":[],"categories_sizes":[],"default_left":[1,1,1,0,0,0,0],"id":2,"left_children":[1,3,5,-1,-1,-1,-1],"loss_changes":[1.2329488E1,5.858409E0,2.1450553E0,0E0,0E0,0E0,0E0],"parents":[2147483647,0,0,1,1,2,2],"right_children":[2,4,6,-1,-1,-1,-1],"split_conditions":[-4.1135398E-1,-1.0508327E0,5.4215455E-1,-1.4400001E-1,3.9452055E-1,-2.0571432E-1,1.2857142E-1],"split_indices":[307,403,6,0,0,0,0],"split_type":[0,0,0,0,0,0,0],"sum_hessian":[2.0888887E1,8.888888E0,1.1999999E1,1.7777777E0,7.1111107E0,1.0666666E1,1.3333333E0],"tree_param":{"num_deleted":"0","num_feature":"768","num_nodes":"7","size_leaf_vector":"0"}},{"base_weights":[-5.648445E-2,-4.4618538E-1,7.266034E-1,7.1778494E-1,-6.295443E-1,9.129692E-1,-4.7809385E-2],"categories":[],"categories_nodes":[],"categories_segments":[],"categories_sizes":[],"default_left":[1,1,1,0,0,0,0],"id":3,"left_children":[1,3,5,-1,-1,-1,-1],"loss_changes":[6.6938663E0,3.558574E0,1.099536E0,0E0,0E0,0E0,0E0],"parents":[2147483647,0,0,1,1,2,2],"right_children":[2,4,6,-1,-1,-1,-1],"split_conditions":[-2.0405312E-1,-1.4757314E-1,-1.9820738E-1,2.1533549E-1,-1.888633E-1,2.7389076E-1,-1.4342816E-2],"split_indices":[568,190,32,0,0,0,0],"split_type":[0,0,0,0,0,0,0],"sum_hessian":[1.9872515E1,1.3556428E1,6.3160863E0,1.4482477E0,1.210818E1,4.9467187E0,1.3693675E0],"tree_param":{"num_deleted":"0","num_feature":"768","num_nodes":"7","size_leaf_vector":"0"}},{"base_weights":[-2.2199374E-2,6.577943E-1,-4.9571934E-1,-4.2402247E-1,9.4554734E-1,-6.262931E-1,3.475399E-1],"categories":[],"categories_nodes":[],"categories_segments":[],"categories_sizes":[],"default_left":[1,1,1,0,0,0,0],"id":4,"left_children":[1,3,5,-1,-1,-1,-1],"loss_changes":[7.0822606E0,3.2160218E0,1.6423879E0,0E0,0E0,0E0,0E0],"parents":[2147483647,0,0,1,1,2,2],"right_children":[2,4,6,-1,-1,-1,-1],"split_conditions":[9.9662334E-2,-1.4085213E0,-1.6898727E-1,-1.2720674E-1,2.8366423E-1,-1.8788795E-1,1.0426197E-1],"split_indices":[531,42,262,0,0,0,0],"split_type":[0,0,0,0,0,0,0],"sum_hessian":[1.9982534E1,8.043125E0,1.1939408E1,1.5904002E0,6.452725E0,1.0561341E1,1.3780671E0],"tree_param":{"num_deleted":"0","num_feature":"768","num_nodes":"7","size_leaf_vector":"0"}},{"base_weights":[7.6659024E-2,5.6423706E-1,-6.1584157E-1,7.871836E-1,-4.5751497E-1,7.836387E-2,9.5171577E-1],"categories":[],"categories_nodes":[],"categories_segments":[],"categories_sizes":[],"default_left":[1,1,0,1,0,0,0],"id":5,"left_children":[1,3,-1,5,-1,-1,-1],"loss_changes":[7.5919538E0,3.3471508E0,0E0,1.2236156E0,0E0,0E0,0E0],"parents":[2147483647,0,0,1,1,3,3],"right_children":[2,4,-1,6,-1,-1,-1],"split_conditions":[1.7394796E-2,8.5009205E-1,-1.8475248E-1,4.4020328E-1,-1.3725449E-1,2.3509163E-2,2.8551474E-1],"split_indices":[742,47,0,391,0,0,0],"split_type":[0,0,0,0,0,0,0],"sum_hessian":[2.0455692E1,1.2112618E1,8.343073E0,1.0131498E1,1.9811205E0,2.1868093E0,7.944689E0],"tree_param":{"num_deleted":"0","num_feature":"768","num_nodes":"7","size_leaf_vector":"0"}},{"base_weights":[-4.008047E-2,-3.9175978E-1,5.828527E-1,5.990324E-1,-5.764465E-1,-8.792385E-2,7.499019E-1],"categories":[],"categories_nodes":[],"categories_segments":[],"categories_sizes":[],"default_left":[1,1,1,0,0,0,0],"id":6,"left_children":[1,3,5,-1,-1,-1,-1],"loss_changes":[4.3907204E0,2.6769335E0,8.7920475E-1,0E0,0E0,0E0,0E0],"parents":[2147483647,0,0,1,1,2,2],"right_children":[2,4,6,-1,-1,-1,-1],"split_conditions":[-2.0405312E-1,-1.4757314E-1,-8.911859E-1,1.7970973E-1,-1.7293395E-1,-2.6377155E-2,2.2497058E-1],"split_indices":[568,190,94,0,0,0,0],"split_type":[0,0,0,0,0,0,0],"sum_hessian":[1.8000004E1,1.1742076E1,6.257929E0,1.4923788E0,1.0249697E1,1.3421733E0,4.9157553E0],"tree_param":{"num_deleted":"0","num_feature":"768","num_nodes":"7","size_leaf_vector":"0"}},{"base_weights":[-2.1896005E-2,4.2084602E-1,-5.65378E-1,-4.5060202E-1,6.775513E-1,7.71934E-1,1.0136672E-2],"categories":[],"categories_nodes":[],"categories_segments":[],"categories_sizes":[],"default_left":[1,1,0,0,1,0,0],"id":7,"left_children":[1,3,-1,-1,5,-1,-1],"loss_changes":[4.845604E0,2.7941985E0,0E0,0E0,5.5870056E-1,0E0,0E0],"parents":[2147483647,0,0,1,1,4,4],"right_children":[2,4,-1,-1,6,-1,-1],"split_conditions":[-2.0796846E-1,-4.1075075E-1,-1.696134E-1,-1.351806E-1,1.0801752E0,2.315802E-1,3.0410017E-3],"split_indices":[541,266,0,0,1,0,0],"split_type":[0,0,0,0,0,0,0],"sum_hessian":[1.8148958E1,1.012576E1,8.023197E0,2.1321924E0,7.993568E0,6.866007E0,1.1275612E0],"tree_param":{"num_deleted":"0","num_feature":"768","num_nodes":"7","size_leaf_vector":"0"}},{"base_weights":[5.952262E-2,5.614392E-1,-4.2923906E-1,-3.9286965E-1,7.6562417E-1,3.371915E-1,-5.750178E-1],"categories":[],"categories_nodes":[],"categories_segments":[],"categories_sizes":[],"default_left":[1,1,1,0,0,0,0],"id":8,"left_children":[1,3,5,-1,-1,-1,-1],"loss_changes":[5.1076217E0,2.2923315E0,1.3801737E0,0E0,0E0,0E0,0E0],"parents":[2147483647,0,0,1,1,2,2],"right_children":[2,4,6,-1,-1,-1,-1],"split_conditions":[-4.1135398E-1,-1.0508327E0,-7.5412714E-1,-1.178609E-1,2.2968726E-1,1.0115745E-1,-1.7250535E-1],"split_indices":[307,403,110,0,0,0,0],"split_type":[0,0,0,0,0,0,0],"sum_hessian":[1.8838078E1,9.220605E0,9.617474E0,1.4622641E0,7.758341E0,1.3271189E0,8.290355E0],"tree_param":{"num_deleted":"0","num_feature":"768","num_nodes":"7","size_leaf_vector":"0"}},{"base_weights":[-2.7479019E-2,-3.4970728E-1,4.897485E-1,5.1111686E-1,-5.353387E-1,6.455908E-1,-1.13158844E-1],"categories":[],"categories_nodes":[],"categories_segments":[],"categories_sizes":[],"default_left":[1,1,1,0,0,0,0],"id":9,"left_children":[1,3,5,-1,-1,-1,-1],"loss_changes":[2.9694018E0,2.0198474E0,7.17711E-1,0E0,0E0,0E0,0E0],"parents":[2147483647,0,0,1,1,2,2],"right_children":[2,4,6,-1,-1,-1,-1],"split_conditions":[-2.0405312E-1,-1.4757314E-1,-1.7035534E-3,1.5333506E-1,-1.6060162E-1,1.9367725E-1,-3.3947654E-2],"split_indices":[568,190,357,0,0,0,0],"split_type":[0,0,0,0,0,0,0],"sum_hessian":[1.5788933E1,9.92785E0,5.8610835E0,1.4500716E0,8.477778E0,4.601E0,1.2600836E0],"tree_param":{"num_deleted":"0","num_feature":"768","num_nodes":"7","size_leaf_vector":"0"}},{"base_weights":[-2.572045E-2,3.5658637E-1,-5.247858E-1,-4.0512884E-1,5.7264715E-1,-1.6458608E-2,6.5816295E-1],"categories":[],"categories_nodes":[],"categories_segments":[],"categories_sizes":[],"default_left":[1,1,0,0,1,0,0],"id":10,"left_children":[1,3,-1,-1,5,-1,-1],"loss_changes":[3.410076E0,1.9041525E0,0E0,0E0,4.3045592E-1,0E0,0E0],"parents":[2147483647,0,0,1,1,4,4],"right_children":[2,4,-1,-1,6,-1,-1],"split_conditions":[-2.0796846E-1,-4.1075075E-1,-1.5743575E-1,-1.21538654E-1,4.5818633E-1,-4.9375826E-3,1.974489E-1],"split_indices":[541,266,0,0,24,0,0],"split_type":[0,0,0,0,0,0,0],"sum_hessian":[1.589209E1,9.160342E0,6.731748E0,1.8308107E0,7.329531E0,1.0314635E0,6.2980676E0],"tree_param":{"num_deleted":"0","num_feature":"768","num_nodes":"7","size_leaf_vector":"0"}},{"base_weights":[5.092805E-2,3.9543542E-1,-5.2083814E-1,6.3100404E-1,-1.8808717E-1,6.715184E-1,2.0294286E-1,-4.130484E-1,2.0321444E-1],"categories":[],"categories_nodes":[],"categories_segments":[],"categories_sizes":[],"default_left":[1,1,0,1,1,0,0,0,0],"id":11,"left_children":[1,3,-1,5,7,-1,-1,-1,-1],"loss_changes":[3.670766E0,1.7056165E0,0E0,1.0336399E-2,4.440238E-1,0E0,0E0,0E0,0E0],"parents":[2147483647,0,0,1,1,3,3,4,4],"right_children":[2,4,-1,6,8,-1,-1,-1,-1],"split_conditions":[1.7394796E-2,5.096983E-1,-1.5625145E-1,-3.573075E-1,8.728403E-2,2.0145552E-1,6.0882863E-2,-1.2391452E-1,6.0964335E-2],"split_indices":[742,564,0,8,49,0,0,0,0],"split_type":[0,0,0,0,0,0,0,0,0],"sum_hessian":[1.6589851E1,1.0544719E1,6.045133E0,7.454115E0,3.0906038E0,6.290043E0,1.1640725E0,1.9271184E0,1.1634854E0],"tree_param":{"num_deleted":"0","num_feature":"768","num_nodes":"9","size_leaf_vector":"0"}},{"base_weights":[-1.7010156E-2,4.11579E-1,-3.4129256E-1,6.0198784E-1,-2.9883096E-1,3.884101E-1,-5.098878E-1],"categories":[],"categories_nodes":[],"categories_segments":[],"categories_sizes":[],"default_left":[1,1,1,0,0,0,0],"id":12,"left_children":[1,3,5,-1,-1,-1,-1],"loss_changes":[2.1723332E0,1.0929949E0,1.289163E0,0E0,0E0,0E0,0E0],"parents":[2147483647,0,0,1,1,2,2],"right_children":[2,4,6,-1,-1,-1,-1],"split_conditions":[-3.0368343E-2,-3.356027E-1,-1.583386E-1,1.8059635E-1,-8.964929E-2,1.16523035E-1,-1.5296635E-1],"split_indices":[237,167,190,0,0,0,0],"split_type":[0,0,0,0,0,0,0],"sum_hessian":[1.361942E1,5.7503057E0,7.8691144E0,4.6552057E0,1.0950999E0,1.2321975E0,6.636917E0],"tree_param":{"num_deleted":"0","num_feature":"768","num_nodes":"7","size_leaf_vector":"0"}},{"base_weights":[-3.0303275E-2,3.1234515E-1,-4.9171188E-1,-3.649261E-1,5.031482E-1,5.7740974E-1,8.3951175E-2],"categories":[],"categories_nodes":[],"categories_segments":[],"categories_sizes":[],"default_left":[1,1,0,0,1,0,0],"id":13,"left_children":[1,3,-1,-1,5,-1,-1],"loss_changes":[2.4649277E0,1.3467574E0,0E0,0E0,1.8322456E-1,0E0,0E0],"parents":[2147483647,0,0,1,1,4,4],"right_children":[2,4,-1,-1,6,-1,-1],"split_conditions":[-2.0796846E-1,-4.1075075E-1,-1.4751357E-1,-1.0947783E-1,5.7487094E-1,1.7322293E-1,2.5185354E-2],"split_indices":[541,266,0,0,313,0,0],"split_type":[0,0,0,0,0,0,0],"sum_hessian":[1.361942E1,8.000901E0,5.6185184E0,1.558016E0,6.442886E0,5.152663E0,1.2902223E0],"tree_param":{"num_deleted":"0","num_feature":"768","num_nodes":"7","size_leaf_vector":"0"}},{"base_weights":[4.4995226E-2,3.4943637E-1,-4.852817E-1,-1.7718062E-1,5.599029E-1,-3.7899265E-1,1.7770146E-1,5.993954E-1,1.5308969E-1],"categories":[],"categories_nodes":[],"categories_segments":[],"categories_sizes":[],"default_left":[1,1,0,1,1,0,0,0,0],"id":14,"left_children":[1,3,-1,5,7,-1,-1,-1,-1],"loss_changes":[2.651304E0,1.2460438E0,0E0,3.333543E-1,3.0872345E-2,0E0,0E0,0E0,0E0],"parents":[2147483647,0,0,1,1,3,3,4,4],"right_children":[2,4,-1,6,8,-1,-1,-1,-1],"split_conditions":[1.7394796E-2,-3.9148402E-1,-1.4558452E-1,1.0592129E0,-6.153271E-1,-1.136978E-1,5.331044E-2,1.7981863E-1,4.5926906E-2],"split_indices":[742,176,0,4,14,0,0,0,0],"split_type":[0,0,0,0,0,0,0,0,0],"sum_hessian":[1.4372632E1,9.347247E0,5.0253854E0,2.714168E0,6.6330786E0,1.6869211E0,1.027247E0,5.6146317E0,1.018447E0],"tree_param":{"num_deleted":"0","num_feature":"768","num_nodes":"9","size_leaf_vector":"0"}},{"base_weights":[-1.0396732E-2,-2.711764E-1,4.457514E-1,3.8997948E-1,-4.3246228E-1,1.2566818E-1,4.965193E-1,-4.790572E-1,-7.503983E-2],"categories":[],"categories_nodes":[],"categories_segments":[],"categories_sizes":[],"default_left":[1,1,1,0,1,0,0,0,0],"id":15,"left_children":[1,3,5,-1,7,-1,-1,-1,-1],"loss_changes":[1.6183783E0,1.0890708E0,1.816094E-2,0E0,8.7507725E-2,0E0,0E0,0E0,0E0],"parents":[2147483647,0,0,1,1,2,2,4,4],"right_children":[2,4,6,-1,8,-1,-1,-1,-1],"split_conditions":[1.3260443E-2,-1.4757314E-1,2.0769036E-1,1.1699385E-1,7.272121E-1,3.7700456E-2,1.4895579E-1,-1.4371717E-1,-2.2511948E-2],"split_indices":[724,190,249,0,124,0,0,0,0],"split_type":[0,0,0,0,0,0,0,0,0],"sum_hessian":[1.1588892E1,7.6314845E0,3.957408E0,1.2185143E0,6.41297E0,1.0175117E0,2.939896E0,5.3723054E0,1.0406647E0],"tree_param":{"num_deleted":"0","num_feature":"768","num_nodes":"9","size_leaf_vector":"0"}},{"base_weights":[-3.178758E-2,3.7606212E-1,-3.67675E-1,-1.2080383E-1,5.1052713E-1,-4.7714972E-1,1.3729846E-1],"categories":[],"categories_nodes":[],"categories_segments":[],"categories_sizes":[],"default_left":[1,1,1,0,0,0,0],"id":16,"left_children":[1,3,5,-1,-1,-1,-1],"loss_changes":[1.8542042E0,4.7264862E-1,4.731905E-1,0E0,0E0,0E0,0E0],"parents":[2147483647,0,0,1,1,2,2],"right_children":[2,4,6,-1,-1,-1,-1],"split_conditions":[9.9662334E-2,-1.3925366E0,3.727545E-1,-3.624115E-2,1.5315814E-1,-1.4314492E-1,4.118954E-2],"split_indices":[531,42,249,0,0,0,0],"split_type":[0,0,0,0,0,0,0],"sum_hessian":[1.15258465E1,5.151299E0,6.3745475E0,1.1187962E0,4.0325027E0,5.2840924E0,1.0904548E0],"tree_param":{"num_deleted":"0","num_feature":"768","num_nodes":"7","size_leaf_vector":"0"}},{"base_weights":[3.988794E-2,3.1341207E-1,-4.5364583E-1,-2.2943303E-1,4.7818753E-1,5.1229157E-2,5.4707193E-1],"categories":[],"categories_nodes":[],"categories_segments":[],"categories_sizes":[],"default_left":[1,1,0,0,1,0,0],"id":17,"left_children":[1,3,-1,-1,5,-1,-1],"loss_changes":[1.9326487E0,9.259414E-1,0E0,0E0,1.8739533E-1,0E0,0E0],"parents":[2147483647,0,0,1,1,4,4],"right_children":[2,4,-1,-1,6,-1,-1],"split_conditions":[1.7394796E-2,-3.423928E-1,-1.3609375E-1,-6.882991E-2,2.4189019E-1,1.53687475E-2,1.6412158E-1],"split_indices":[742,357,0,0,38,0,0],"split_type":[0,0,0,0,0,0,0],"sum_hessian":[1.2263394E1,8.125229E0,4.1381655E0,1.8006555E0,6.3245735E0,1.1208754E0,5.203698E0],"tree_param":{"num_deleted":"0","num_feature":"768","num_nodes":"7","size_leaf_vector":"0"}},{"base_weights":[-2.7421294E-3,3.519657E-1,-2.9601133E-1,4.9545392E-1,-1.19982384E-1,2.4669522E-1,-4.5170826E-1],"categories":[],"categories_nodes":[],"categories_segments":[],"categories_sizes":[],"default_left":[1,1,1,0,0,0,0],"id":18,"left_children":[1,3,5,-1,-1,-1,-1],"loss_changes":[1.2443337E0,4.263057E-1,6.642991E-1,0E0,0E0,0E0,0E0],"parents":[2147483647,0,0,1,1,2,2],"right_children":[2,4,6,-1,-1,-1,-1],"split_conditions":[-3.0368343E-2,1.1645527E0,-1.112122E-1,1.4863618E-1,-3.5994716E-2,7.400857E-2,-1.3551249E-1],"split_indices":[237,462,190,0,0,0,0],"split_type":[0,0,0,0,0,0,0],"sum_hessian":[9.960339E0,4.417385E0,5.542954E0,3.3492835E0,1.0681016E0,1.1054106E0,4.4375434E0],"tree_param":{"num_deleted":"0","num_feature":"768","num_nodes":"7","size_leaf_vector":"0"}},{"base_weights":[-3.175395E-2,2.5991178E-1,-4.37454E-1,-3.0215058E-1,4.2392918E-1,4.8176813E-1,7.428151E-2],"categories":[],"categories_nodes":[],"categories_segments":[],"categories_sizes":[],"default_left":[1,1,0,0,1,0,0],"id":19,"left_children":[1,3,-1,-1,5,-1,-1],"loss_changes":[1.3938934E0,7.66155E-1,0E0,0E0,8.098233E-2,0E0,0E0],"parents":[2147483647,0,0,1,1,4,4],"right_children":[2,4,-1,-1,6,-1,-1],"split_conditions":[-2.0796846E-1,-4.1075075E-1,-1.312362E-1,-9.064518E-2,1.0264367E0,1.4453045E-1,2.2284456E-2],"split_indices":[541,266,0,0,1,0,0],"split_type":[0,0,0,0,0,0,0],"sum_hessian":[9.818955E0,5.921339E0,3.8976169E0,1.1473527E0,4.7739863E0,3.7721305E0,1.0018556E0],"tree_param":{"num_deleted":"0","num_feature":"768","num_nodes":"7","size_leaf_vector":"0"}},{"base_weights":[3.2291744E-2,3.5785866E-1,-3.221281E-1,-1.6085912E-1,4.9686542E-1,1.5431933E-1,-4.4679537E-1],"categories":[],"categories_nodes":[],"categories_segments":[],"categories_sizes":[],"default_left":[1,1,1,0,0,0,0],"id":20,"left_children":[1,3,5,-1,-1,-1,-1],"loss_changes":[1.4502507E0,5.488932E-1,4.292282E-1,0E0,0E0,0E0,0E0],"parents":[2147483647,0,0,1,1,2,2],"right_children":[2,4,6,-1,-1,-1,-1],"split_conditions":[-4.1135398E-1,-9.6881306E-1,-3.1799448E-1,-4.825774E-2,1.4905964E-1,4.62958E-2,-1.3403861E-1],"split_indices":[307,403,277,0,0,0,0],"split_type":[0,0,0,0,0,0,0],"sum_hessian":[1.0569503E1,5.5039344E0,5.065568E0,1.1300048E0,4.37393E0,1.0012374E0,4.0643306E0],"tree_param":{"num_deleted":"0","num_feature":"768","num_nodes":"7","size_leaf_vector":"0"}},{"base_weights":[3.445278E-4,-2.4651904E-1,3.628019E-1,3.2154348E-1,-4.363354E-1,9.936547E-2,4.2343792E-1],"categories":[],"categories_nodes":[],"categories_segments":[],"categories_sizes":[],"default_left":[1,1,1,0,0,0,0],"id":21,"left_children":[1,3,5,-1,-1,-1,-1],"loss_changes":[9.3607134E-1,8.114107E-1,2.5622368E-2,0E0,0E0,0E0,0E0],"parents":[2147483647,0,0,1,1,2,2],"right_children":[2,4,6,-1,-1,-1,-1],"split_conditions":[-3.1886764E-2,-1.583386E-1,5.837377E-1,9.646305E-2,-1.3090064E-1,2.9809643E-2,1.2703139E-1],"split_indices":[491,190,381,0,0,0,0],"split_type":[0,0,0,0,0,0,0],"sum_hessian":[8.461971E0,5.223917E0,3.2380538E0,1.1345584E0,4.089359E0,1.099582E0,2.1384718E0],"tree_param":{"num_deleted":"0","num_feature":"768","num_nodes":"7","size_leaf_vector":"0"}},{"base_weights":[-3.1944208E-2,3.2188052E-1,-3.263046E-1,-2.9411007E-2,4.270724E-1,-4.250719E-1,6.0961597E-2],"categories":[],"categories_nodes":[],"categories_segments":[],"categories_sizes":[],"default_left":[1,1,1,0,0,0,0],"id":22,"left_children":[1,3,5,-1,-1,-1,-1],"loss_changes":[1.073924E0,1.8727604E-1,2.3913872E-1,0E0,0E0,0E0,0E0],"parents":[2147483647,0,0,1,1,2,2],"right_children":[2,4,6,-1,-1,-1,-1],"split_conditions":[9.9662334E-2,-3.089195E-1,5.5569977E-1,-8.823303E-3,1.2812173E-1,-1.2752157E-1,1.828848E-2],"split_indices":[531,175,649,0,0,0,0],"split_type":[0,0,0,0,0,0,0],"sum_hessian":[8.302682E0,3.728041E0,4.5746408E0,1.0250988E0,2.7029421E0,3.56724E0,1.0074008E0],"tree_param":{"num_deleted":"0","num_feature":"768","num_nodes":"7","size_leaf_vector":"0"}},{"base_weights":[2.9471774E-2,-3.6310652E-1,2.8493553E-1,-1.7679122E-1,4.1295022E-1,4.6310794E-1,9.97708E-2],"categories":[],"categories_nodes":[],"categories_segments":[],"categories_sizes":[],"default_left":[1,0,1,0,1,0,0],"id":23,"left_children":[1,-1,3,-1,5,-1,-1],"loss_changes":[1.1035969E0,0E0,4.632094E-1,0E0,3.969401E-2,0E0,0E0],"parents":[2147483647,0,0,2,2,4,4],"right_children":[2,-1,4,-1,6,-1,-1],"split_conditions":[-3.9471424E-1,-1.0893196E-1,-7.532122E-1,-5.3037368E-2,-5.176034E-2,1.3893239E-1,2.9931242E-2],"split_indices":[60,0,623,0,742,0,0],"split_type":[0,0,0,0,0,0,0],"sum_hessian":[8.972476E0,3.3709228E0,5.6015534E0,1.1332164E0,4.468337E0,3.438852E0,1.0294852E0],"tree_param":{"num_deleted":"0","num_feature":"768","num_nodes":"7","size_leaf_vector":"0"}},{"base_weights":[7.7648284E-3,-2.2168402E-1,3.6385936E-1,-4.068822E-1,1.735732E-1],"categories":[],"categories_nodes":[],"categories_segments":[],"categories_sizes":[],"default_left":[1,1,0,0,0],"id":24,"left_children":[1,3,-1,-1,-1],"loss_changes":[7.5850224E-1,4.8542804E-1,0E0,0E0,0E0],"parents":[2147483647,0,0,1,1],"right_children":[2,4,-1,-1,-1],"split_conditions":[1.3260443E-2,5.534839E-1,1.0915781E-1,-1.22064665E-1,5.2071963E-2],"split_indices":[724,201,0,0,0],"split_type":[0,0,0,0,0],"sum_hessian":[7.2961445E0,4.6666527E0,2.6294918E0,3.1576986E0,1.5089542E0],"tree_param":{"num_deleted":"0","num_feature":"768","num_nodes":"5","size_leaf_vector":"0"}},{"base_weights":[-2.9628865E-2,2.292365E-1,-3.922049E-1,-1.3124995E-1,3.9606234E-1],"categories":[],"categories_nodes":[],"categories_segments":[],"categories_sizes":[],"default_left":[1,1,0,0,0],"id":25,"left_children":[1,3,-1,-1,-1],"loss_changes":[8.576172E-1,3.7693334E-1,0E0,0E0,0E0],"parents":[2147483647,0,0,1,1],"right_children":[2,4,-1,-1,-1],"split_conditions":[-2.0796846E-1,-2.4494737E-1,-1.17661476E-1,-3.9374985E-2,1.1881871E-1],"split_indices":[541,386,0,0,0],"split_type":[0,0,0,0,0],"sum_hessian":[7.1794457E0,4.403367E0,2.7760787E0,1.4605603E0,2.9428067E0],"tree_param":{"num_deleted":"0","num_feature":"768","num_nodes":"5","size_leaf_vector":"0"}},{"base_weights":[2.0369537E-2,3.06857E-1,-2.8978974E-1,-7.3027596E-2,4.2638537E-1,4.5922853E-2,-3.9362627E-1],"categories":[],"categories_nodes":[],"categories_segments":[],"categories_sizes":[],"default_left":[1,1,1,0,0,0,0],"id":26,"left_children":[1,3,5,-1,-1,-1,-1],"loss_changes":[8.6509454E-1,2.59377E-1,1.8221334E-1,0E0,0E0,0E0,0E0],"parents":[2147483647,0,0,1,1,2,2],"right_children":[2,4,6,-1,-1,-1,-1],"split_conditions":[-4.1135398E-1,-4.2392635E-1,-5.6492245E-1,-2.190828E-2,1.2791562E-1,1.37768565E-2,-1.1808789E-1],"split_indices":[307,176,200,0,0,0,0],"split_type":[0,0,0,0,0,0,0],"sum_hessian":[7.735079E0,4.026518E0,3.708561E0,1.0568088E0,2.969709E0,1.007846E0,2.7007148E0],"tree_param":{"num_deleted":"0","num_feature":"768","num_nodes":"7","size_leaf_vector":"0"}},{"base_weights":[8.515879E-3,2.9993543E-1,-2.5500062E-1,3.8409594E-1,3.174462E-2,7.3499694E-2,-3.7381452E-1],"categories":[],"categories_nodes":[],"categories_segments":[],"categories_sizes":[],"default_left":[1,1,1,0,0,0,0],"id":27,"left_children":[1,3,5,-1,-1,-1,-1],"loss_changes":[6.391397E-1,7.670835E-2,1.987448E-1,0E0,0E0,0E0,0E0],"parents":[2147483647,0,0,1,1,2,2],"right_children":[2,4,6,-1,-1,-1,-1],"split_conditions":[-3.0368343E-2,1.125137E0,-4.964506E-1,1.1522879E-1,9.523387E-3,2.204991E-2,-1.1214436E-1],"split_indices":[237,462,285,0,0,0,0],"split_type":[0,0,0,0,0,0,0],"sum_hessian":[6.3268347E0,2.9387286E0,3.3881059E0,1.907854E0,1.0308746E0,1.0012386E0,2.3868673E0],"tree_param":{"num_deleted":"0","num_feature":"768","num_nodes":"7","size_leaf_vector":"0"}},{"base_weights":[-2.924387E-2,2.8120574E-1,-2.9378986E-1,3.606033E-1,2.8563894E-2,-3.7399605E-1,-1.3550903E-2],"categories":[],"categories_nodes":[],"categories_segments":[],"categories_sizes":[],"default_left":[1,1,1,0,0,0,0],"id":28,"left_children":[1,3,5,-1,-1,-1,-1],"loss_changes":[6.741574E-1,6.642142E-2,9.333348E-2,0E0,0E0,0E0,0E0],"parents":[2147483647,0,0,1,1,2,2],"right_children":[2,4,6,-1,-1,-1,-1],"split_conditions":[9.9662334E-2,6.870663E-1,8.49925E-1,1.0818099E-1,8.569169E-3,-1.1219882E-1,-4.065271E-3],"split_indices":[531,351,72,0,0,0,0],"split_type":[0,0,0,0,0,0,0],"sum_hessian":[6.2026653E0,2.8247705E0,3.3778949E0,1.8241624E0,1.0006082E0,2.3661318E0,1.0117631E0],"tree_param":{"num_deleted":"0","num_feature":"768","num_nodes":"7","size_leaf_vector":"0"}},{"base_weights":[1.9177213E-2,2.2443311E-1,-3.584972E-1,3.860736E-1,-1.5186493E-1],"categories":[],"categories_nodes":[],"categories_segments":[],"categories_sizes":[],"default_left":[1,1,0,0,0],"id":29,"left_children":[1,3,-1,-1,-1],"loss_changes":[6.7968494E-1,4.0065947E-1,0E0,0E0,0E0],"parents":[2147483647,0,0,1,1],"right_children":[2,4,-1,-1,-1],"split_conditions":[1.7394796E-2,5.096983E-1,-1.0754917E-1,1.15822084E-1,-4.555948E-2],"split_indices":[742,564,0,0,0],"split_type":[0,0,0,0,0],"sum_hessian":[6.7299676E0,4.623156E0,2.1068113E0,3.2158117E0,1.4073443E0],"tree_param":{"num_deleted":"0","num_feature":"768","num_nodes":"5","size_leaf_vector":"0"}},{"base_weights":[1.3616927E-2,2.7972847E-1,-2.3421289E-1,4.3556888E-2,3.536702E-1,5.1448043E-2,-3.4809688E-1],"categories":[],"categories_nodes":[],"categories_segments":[],"categories_sizes":[],"default_left":[1,1,1,0,0,0,0],"id":30,"left_children":[1,3,5,-1,-1,-1,-1],"loss_changes":[5.006807E-1,4.811743E-2,1.4676312E-1,0E0,0E0,0E0,0E0],"parents":[2147483647,0,0,1,1,2,2],"right_children":[2,4,6,-1,-1,-1,-1],"split_conditions":[-3.0368343E-2,4.038822E-1,1.9418964E-2,1.3067067E-2,1.06101066E-1,1.5434413E-2,-1.04429066E-1],"split_indices":[237,701,190,0,0,0,0],"split_type":[0,0,0,0,0,0,0],"sum_hessian":[5.5983644E0,2.6375442E0,2.9608202E0,1.0077711E0,1.629773E0,1.0002028E0,1.9606175E0],"tree_param":{"num_deleted":"0","num_feature":"768","num_nodes":"7","size_leaf_vector":"0"}},{"base_weights":[-2.6893439E-2,2.0239012E-1,-3.510579E-1,-1.0877251E-1,3.4757E-1],"categories":[],"categories_nodes":[],"categories_segments":[],"categories_sizes":[],"default_left":[1,1,0,0,0],"id":31,"left_children":[1,3,-1,-1,-1],"loss_changes":[5.494012E-1,2.3675126E-1,0E0,0E0,0E0],"parents":[2147483647,0,0,1,1],"right_children":[2,4,-1,-1,-1],"split_conditions":[-2.0796846E-1,-2.4494737E-1,-1.0531737E-1,-3.2631755E-2,1.04271E-1],"split_indices":[541,386,0,0,0],"split_type":[0,0,0,0,0],"sum_hessian":[5.435881E0,3.4039216E0,2.0319593E0,1.1626974E0,2.2412243E0],"tree_param":{"num_deleted":"0","num_feature":"768","num_nodes":"5","size_leaf_vector":"0"}},{"base_weights":[1.2076606E-2,2.6591E-1,-2.6491624E-1,3.7159097E-1,-2.9922567E-2,-3.4035936E-1,-2.7614847E-2],"categories":[],"categories_nodes":[],"categories_segments":[],"categories_sizes":[],"default_left":[1,1,1,0,0,0,0],"id":32,"left_children":[1,3,5,-1,-1,-1,-1],"loss_changes":[5.550301E-1,1.3915953E-1,5.8571607E-2,0E0,0E0,0E0,0E0],"parents":[2147483647,0,0,1,1,2,2],"right_children":[2,4,6,-1,-1,-1,-1],"split_conditions":[-4.1135398E-1,4.4676103E-2,-5.706608E-1,1.1147729E-1,-8.976771E-3,-1.02107815E-1,-8.284454E-3],"split_indices":[307,402,222,0,0,0,0],"split_type":[0,0,0,0,0,0,0],"sum_hessian":[5.8921347E0,3.0954797E0,2.7966547E0,2.0920475E0,1.0034324E0,1.7924923E0,1.0041624E0],"tree_param":{"num_deleted":"0","num_feature":"768","num_nodes":"7","size_leaf_vector":"0"}},{"base_weights":[1.3657205E-2,1.9504397E-1,-3.1416678E-1,-1.05157636E-1,3.4101877E-1],"categories":[],"categories_nodes":[],"categories_segments":[],"categories_sizes":[],"default_left":[1,1,0,0,0],"id":33,"left_children":[1,3,-1,-1,-1],"loss_changes":[4.1591904E-1,2.3115666E-1,0E0,0E0,0E0],"parents":[2147483647,0,0,1,1],"right_children":[2,4,-1,-1,-1],"split_conditions":[1.8396452E-1,1.0355926E0,-9.425004E-2,-3.1547293E-2,1.02305636E-1],"split_indices":[15,159,0,0,0],"split_type":[0,0,0,0,0],"sum_hessian":[4.964098E0,3.4565852E0,1.5075126E0,1.2223674E0,2.234218E0],"tree_param":{"num_deleted":"0","num_feature":"768","num_nodes":"5","size_leaf_vector":"0"}},{"base_weights":[-2.479548E-2,1.8842155E-1,-3.309206E-1,-9.776818E-2,3.2497603E-1],"categories":[],"categories_nodes":[],"categories_segments":[],"categories_sizes":[],"default_left":[1,1,0,0,0],"id":34,"left_children":[1,3,-1,-1,-1],"loss_changes":[4.4141647E-1,1.9045585E-1,0E0,0E0,0E0],"parents":[2147483647,0,0,1,1],"right_children":[2,4,-1,-1,-1],"split_conditions":[-2.0796846E-1,-2.4494737E-1,-9.9276185E-2,-2.9330455E-2,9.7492814E-2],"split_indices":[541,386,0,0,0],"split_type":[0,0,0,0,0],"sum_hessian":[4.807531E0,3.0604286E0,1.7471023E0,1.0803258E0,1.9801027E0],"tree_param":{"num_deleted":"0","num_feature":"768","num_nodes":"5","size_leaf_vector":"0"}},{"base_weights":[1.0055939E-2,2.4927633E-1,-2.4930735E-1,5.7732062E-3,3.4111392E-1,-3.1322268E-1,-4.5277365E-2],"categories":[],"categories_nodes":[],"categories_segments":[],"categories_sizes":[],"default_left":[1,1,1,0,0,0,0],"id":35,"left_children":[1,3,5,-1,-1,-1,-1],"loss_changes":[4.4806394E-1,8.157021E-2,3.1255692E-2,0E0,0E0,0E0,0E0],"parents":[2147483647,0,0,1,1,2,2],"right_children":[2,4,6,-1,-1,-1,-1],"split_conditions":[-4.1135398E-1,-4.4598657E-1,1.4390814E-1,1.731962E-3,1.0233418E-1,-9.3966804E-2,-1.358321E-2],"split_indices":[307,677,248,0,0,0,0],"split_type":[0,0,0,0,0,0,0],"sum_hessian":[5.219963E0,2.7356565E0,2.4843063E0,1.0402763E0,1.6953803E0,1.4841846E0,1.0001218E0],"tree_param":{"num_deleted":"0","num_feature":"768","num_nodes":"7","size_leaf_vector":"0"}},{"base_weights":[1.0782379E-2,2.501857E-1,-2.1720311E-1,-1.905512E-2,-2.9481557E-1],"categories":[],"categories_nodes":[],"categories_segments":[],"categories_sizes":[],"default_left":[1,0,1,0,0],"id":36,"left_children":[1,-1,3,-1,-1],"loss_changes":[3.4996223E-1,0E0,4.527919E-2,0E0,0E0],"parents":[2147483647,0,0,2,2],"right_children":[2,-1,4,-1,-1],"split_conditions":[-3.0368343E-2,7.505571E-2,8.441983E-2,-5.716536E-3,-8.844467E-2],"split_indices":[237,0,190,0,0],"split_type":[0,0,0,0,0],"sum_hessian":[4.416242E0,2.1066804E0,2.3095617E0,1.0005727E0,1.308989E0],"tree_param":{"num_deleted":"0","num_feature":"768","num_nodes":"5","size_leaf_vector":"0"}},{"base_weights":[-2.2714023E-2,2.3419455E-1,-2.50951E-1,-7.8368545E-2,-2.9242668E-1],"categories":[],"categories_nodes":[],"categories_segments":[],"categories_sizes":[],"default_left":[1,0,1,0,0],"id":37,"left_children":[1,-1,3,-1,-1],"loss_changes":[3.6776274E-1,0E0,5.129427E-4,0E0,0E0],"parents":[2147483647,0,0,2,2],"right_children":[2,-1,4,-1,-1],"split_conditions":[9.9662334E-2,7.0258364E-2,-2.7572647E-2,-2.3510564E-2,-8.772801E-2],"split_indices":[531,0,452,0,0],"split_type":[0,0,0,0,0],"sum_hessian":[4.26965E0,1.996379E0,2.2732708E0,1.0003344E0,1.2729366E0],"tree_param":{"num_deleted":"0","num_feature":"768","num_nodes":"5","size_leaf_vector":"0"}},{"base_weights":[1.0843011E-2,-2.7644184E-1,2.0335303E-1,3.3068475E-1,-8.614138E-2],"categories":[],"categories_nodes":[],"categories_segments":[],"categories_sizes":[],"default_left":[1,0,1,0,0],"id":38,"left_children":[1,-1,3,-1,-1],"loss_changes":[3.6885056E-1,0E0,1.7449291E-1,0E0,0E0],"parents":[2147483647,0,0,2,2],"right_children":[2,-1,4,-1,-1],"split_conditions":[-3.9471424E-1,-8.2932554E-2,7.0420563E-1,9.920543E-2,-2.5842415E-2],"split_indices":[60,0,376,0,0],"split_type":[0,0,0,0,0],"sum_hessian":[4.6529074E0,1.691972E0,2.9609356E0,1.9576123E0,1.0033232E0],"tree_param":{"num_deleted":"0","num_feature":"768","num_nodes":"5","size_leaf_vector":"0"}},{"base_weights":[1.0244133E-2,-1.9281282E-1,2.564371E-1,2.225399E-2,-2.949341E-1],"categories":[],"categories_nodes":[],"categories_segments":[],"categories_sizes":[],"default_left":[1,1,0,0,0],"id":39,"left_children":[1,3,-1,-1,-1],"loss_changes":[3.0115864E-1,7.970277E-2,0E0,0E0,0E0],"parents":[2147483647,0,0,1,1],"right_children":[2,4,-1,-1,-1],"split_conditions":[-2.0405312E-1,1.0253979E-1,7.6931134E-2,6.6761975E-3,-8.8480234E-2],"split_indices":[568,676,0,0,0],"split_type":[0,0,0,0,0],"sum_hessian":[4.0351725E0,2.330131E0,1.7050414E0,1.0020025E0,1.3281287E0],"tree_param":{"num_deleted":"0","num_feature":"768","num_nodes":"5","size_leaf_vector":"0"}},{"base_weights":[-2.1337284E-2,1.7268977E-1,-2.9897162E-1,2.8803793E-1,-5.4963924E-2],"categories":[],"categories_nodes":[],"categories_segments":[],"categories_sizes":[],"default_left":[1,1,0,0,0],"id":40,"left_children":[1,3,-1,-1,-1],"loss_changes":[3.1495E-1,1.0803425E-1,0E0,0E0,0E0],"parents":[2147483647,0,0,1,1],"right_children":[2,4,-1,-1,-1],"split_conditions":[-2.0796846E-1,3.7596145E-1,-8.969149E-2,8.641138E-2,-1.6489178E-2],"split_indices":[541,191,0,0,0],"split_type":[0,0,0,0,0],"sum_hessian":[3.8882053E0,2.5112166E0,1.3769886E0,1.4906726E0,1.020544E0],"tree_param":{"num_deleted":"0","num_feature":"768","num_nodes":"5","size_leaf_vector":"0"}},{"base_weights":[1.012543E-2,2.0952718E-1,-2.4396527E-1,-2.5919158E-2,3.175653E-1],"categories":[],"categories_nodes":[],"categories_segments":[],"categories_sizes":[],"default_left":[1,1,0,0,0],"id":41,"left_children":[1,3,-1,-1,-1],"loss_changes":[3.149221E-1,9.612377E-2,0E0,0E0,0E0],"parents":[2147483647,0,0,1,1],"right_children":[2,4,-1,-1,-1],"split_conditions":[4.8294622E-1,4.2191023E-1,-7.318959E-2,-7.7757477E-3,9.526959E-2],"split_indices":[225,407,0,0,0],"split_type":[0,0,0,0,0],"sum_hessian":[4.2067285E0,2.455287E0,1.7514414E0,1.0113516E0,1.4439354E0],"tree_param":{"num_deleted":"0","num_feature":"768","num_nodes":"5","size_leaf_vector":"0"}},{"base_weights":[9.497405E-3,2.1931326E-1,-2.160221E-1],"categories":[],"categories_nodes":[],"categories_segments":[],"categories_sizes":[],"default_left":[1,0,0],"id":42,"left_children":[1,-1,-1],"loss_changes":[2.6857898E-1,0E0,0E0],"parents":[2147483647,0,0],"right_children":[2,-1,-1],"split_conditions":[1.7948803E-1,6.579398E-2,-6.480663E-2],"split_indices":[329,0,0],"split_type":[0,0,0],"sum_hessian":[3.6748488E0,1.9179611E0,1.7568876E0],"tree_param":{"num_deleted":"0","num_feature":"768","num_nodes":"3","size_leaf_vector":"0"}},{"base_weights":[-2.314534E-2,1.5693784E-1,-2.8072894E-1,-5.2598808E-2,2.731991E-1],"categories":[],"categories_nodes":[],"categories_segments":[],"categories_sizes":[],"default_left":[1,1,0,0,0],"id":43,"left_children":[1,3,-1,-1,-1],"loss_changes":[2.5207794E-1,9.429183E-2,0E0,0E0,0E0],"parents":[2147483647,0,0,1,1],"right_children":[2,4,-1,-1,-1],"split_conditions":[-2.0796846E-1,-9.530225E-1,-8.421868E-2,-1.5779642E-2,8.195974E-2],"split_indices":[541,421,0,0,0],"split_type":[0,0,0,0,0],"sum_hessian":[3.4845178E0,2.2807314E0,1.2037864E0,1.0092858E0,1.2714456E0],"tree_param":{"num_deleted":"0","num_feature":"768","num_nodes":"5","size_leaf_vector":"0"}},{"base_weights":[1.2310047E-2,2.1317393E-1,-2.1053542E-1,4.969806E-2,2.6930454E-1],"categories":[],"categories_nodes":[],"categories_segments":[],"categories_sizes":[],"default_left":[1,1,0,0,0],"id":44,"left_children":[1,3,-1,-1,-1],"loss_changes":[2.608574E-1,1.4461294E-2,0E0,0E0,0E0],"parents":[2147483647,0,0,1,1],"right_children":[2,4,-1,-1,-1],"split_conditions":[-4.1135398E-1,-2.9199463E-1,-6.316063E-2,1.4909418E-2,8.079137E-2],"split_indices":[307,716,0,0,0],"split_type":[0,0,0,0,0],"sum_hessian":[3.8250442E0,2.0345676E0,1.7904766E0,1.0019295E0,1.0326381E0],"tree_param":{"num_deleted":"0","num_feature":"768","num_nodes":"5","size_leaf_vector":"0"}},{"base_weights":[7.152265E-3,2.2225559E-1,-1.9777858E-1],"categories":[],"categories_nodes":[],"categories_segments":[],"categories_sizes":[],"default_left":[1,0,0],"id":45,"left_children":[1,-1,-1],"loss_changes":[2.3830937E-1,0E0,0E0],"parents":[2147483647,0,0],"right_children":[2,-1,-1],"split_conditions":[-3.0368343E-2,6.6676676E-2,-5.9333578E-2],"split_indices":[237,0,0],"split_type":[0,0,0],"sum_hessian":[3.4089432E0,1.6219462E0,1.786997E0],"tree_param":{"num_deleted":"0","num_feature":"768","num_nodes":"3","size_leaf_vector":"0"}},{"base_weights":[-2.2986433E-2,1.9419241E-1,-2.1332823E-1],"categories":[],"categories_nodes":[],"categories_segments":[],"categories_sizes":[],"default_left":[1,0,0],"id":46,"left_children":[1,-1,-1],"loss_changes":[2.1434659E-1,0E0,0E0],"parents":[2147483647,0,0],"right_children":[2,-1,-1],"split_conditions":[9.9662334E-2,5.8257725E-2,-6.399847E-2],"split_indices":[531,0,0],"split_type":[0,0,0],"sum_hessian":[3.1830518E0,1.477268E0,1.7057838E0],"tree_param":{"num_deleted":"0","num_feature":"768","num_nodes":"3","size_leaf_vector":"0"}},{"base_weights":[1.4266551E-2,-1.894475E-1,2.1572451E-1],"categories":[],"categories_nodes":[],"categories_segments":[],"categories_sizes":[],"default_left":[1,0,0],"id":47,"left_children":[1,-1,-1],"loss_changes":[2.2675624E-1,0E0,0E0],"parents":[2147483647,0,0],"right_children":[2,-1,-1],"split_conditions":[8.4646064E-1,-5.6834254E-2,6.471736E-2],"split_indices":[650,0,0],"split_type":[0,0,0],"sum_hessian":[3.5294492E0,1.784541E0,1.7449082E0],"tree_param":{"num_deleted":"0","num_feature":"768","num_nodes":"3","size_leaf_vector":"0"}},{"base_weights":[9.996105E-3,-2.0334892E-1,1.905906E-1],"categories":[],"categories_nodes":[],"categories_segments":[],"categories_sizes":[],"default_left":[1,0,0],"id":48,"left_children":[1,-1,-1],"loss_changes":[2.0118496E-1,0E0,0E0],"parents":[2147483647,0,0],"right_children":[2,-1,-1],"split_conditions":[3.584814E-1,-6.100468E-2,5.7177182E-2],"split_indices":[701,0,0],"split_type":[0,0,0],"sum_hessian":[3.2157547E0,1.4164438E0,1.7993109E0],"tree_param":{"num_deleted":"0","num_feature":"768","num_nodes":"3","size_leaf_vector":"0"}},{"base_weights":[-2.1888442E-2,1.4504176E-1,-2.563244E-1],"categories":[],"categories_nodes":[],"categories_segments":[],"categories_sizes":[],"default_left":[1,0,0],"id":49,"left_children":[1,-1,-1],"loss_changes":[1.9170935E-1,0E0,0E0],"parents":[2147483647,0,0],"right_children":[2,-1,-1],"split_conditions":[-2.0796846E-1,4.351253E-2,-7.689732E-2],"split_indices":[541,0,0],"split_type":[0,0,0],"sum_hessian":[2.9487367E0,1.945067E0,1.0036696E0],"tree_param":{"num_deleted":"0","num_feature":"768","num_nodes":"3","size_leaf_vector":"0"}},{"base_weights":[1.0295432E-2,1.9993104E-1,-1.9681895E-1],"categories":[],"categories_nodes":[],"categories_segments":[],"categories_sizes":[],"default_left":[1,0,0],"id":50,"left_children":[1,-1,-1],"loss_changes":[2.0831473E-1,0E0,0E0],"parents":[2147483647,0,0],"right_children":[2,-1,-1],"split_conditions":[-4.1135398E-1,5.9979316E-2,-5.9045687E-2],"split_indices":[307,0,0],"split_type":[0,0,0],"sum_hessian":[3.3019505E0,1.7418141E0,1.5601363E0],"tree_param":{"num_deleted":"0","num_feature":"768","num_nodes":"3","size_leaf_vector":"0"}},{"base_weights":[1.1041699E-2,2.214351E-1,-1.632426E-1],"categories":[],"categories_nodes":[],"categories_segments":[],"categories_sizes":[],"default_left":[1,0,0],"id":51,"left_children":[1,-1,-1],"loss_changes":[1.839232E-1,0E0,0E0],"parents":[2147483647,0,0],"right_children":[2,-1,-1],"split_conditions":[1.10005215E-1,6.643053E-2,-4.897278E-2],"split_indices":[329,0,0],"split_type":[0,0,0],"sum_hessian":[3.0300672E0,1.2502475E0,1.7798196E0],"tree_param":{"num_deleted":"0","num_feature":"768","num_nodes":"3","size_leaf_vector":"0"}},{"base_weights":[-2.1044748E-2,1.6986503E-1,-2.109352E-1],"categories":[],"categories_nodes":[],"categories_segments":[],"categories_sizes":[],"default_left":[1,0,0],"id":52,"left_children":[1,-1,-1],"loss_changes":[1.7216949E-1,0E0,0E0],"parents":[2147483647,0,0],"right_children":[2,-1,-1],"split_conditions":[-3.356423E-1,5.095951E-2,-6.328057E-2],"split_indices":[586,0,0],"split_type":[0,0,0],"sum_hessian":[2.7608736E0,1.4293295E0,1.331544E0],"tree_param":{"num_deleted":"0","num_feature":"768","num_nodes":"3","size_leaf_vector":"0"}},{"base_weights":[8.503765E-3,-2.1917205E-1,1.6219588E-1,-2.1856826E-2,2.6531386E-1],"categories":[],"categories_nodes":[],"categories_segments":[],"categories_sizes":[],"default_left":[1,0,1,0,0],"id":53,"left_children":[1,-1,3,-1,-1],"loss_changes":[1.781188E-1,0E0,6.287084E-2,0E0,0E0],"parents":[2147483647,0,0,2,2],"right_children":[2,-1,4,-1,-1],"split_conditions":[-3.9471424E-1,-6.575162E-2,2.9120636E-1,-6.557048E-3,7.9594165E-2],"split_indices":[60,0,102,0,0],"split_type":[0,0,0,0,0],"sum_hessian":[3.0743623E0,1.0672772E0,2.007085E0,1.003681E0,1.0034041E0],"tree_param":{"num_deleted":"0","num_feature":"768","num_nodes":"5","size_leaf_vector":"0"}},{"base_weights":[1.0963291E-2,1.9370876E-1,-1.8044023E-1],"categories":[],"categories_nodes":[],"categories_segments":[],"categories_sizes":[],"default_left":[1,0,0],"id":54,"left_children":[1,-1,-1],"loss_changes":[1.6880131E-1,0E0,0E0],"parents":[2147483647,0,0],"right_children":[2,-1,-1],"split_conditions":[7.904651E-1,5.8112632E-2,-5.413207E-2],"split_indices":[545,0,0],"split_type":[0,0,0],"sum_hessian":[2.826633E0,1.4398603E0,1.3867726E0],"tree_param":{"num_deleted":"0","num_feature":"768","num_nodes":"3","size_leaf_vector":"0"}},{"base_weights":[-2.1193083E-2,1.7025357E-1,-1.8580782E-1],"categories":[],"categories_nodes":[],"categories_segments":[],"categories_sizes":[],"default_left":[1,0,0],"id":55,"left_children":[1,-1,-1],"loss_changes":[1.4431767E-1,0E0,0E0],"parents":[2147483647,0,0],"right_children":[2,-1,-1],"split_conditions":[9.9662334E-2,5.1076073E-2,-5.574235E-2],"split_indices":[531,0,0],"split_type":[0,0,0],"sum_hessian":[2.5755486E0,1.1748941E0,1.4006547E0],"tree_param":{"num_deleted":"0","num_feature":"768","num_nodes":"3","size_leaf_vector":"0"}},{"base_weights":[8.728677E-3,1.6819888E-1,-1.9810824E-1],"categories":[],"categories_nodes":[],"categories_segments":[],"categories_sizes":[],"default_left":[1,0,0],"id":56,"left_children":[1,-1,-1],"loss_changes":[1.6113813E-1,0E0,0E0],"parents":[2147483647,0,0],"right_children":[2,-1,-1],"split_conditions":[4.8294622E-1,5.0459668E-2,-5.9432473E-2],"split_indices":[225,0,0],"split_type":[0,0,0],"sum_hessian":[2.8750694E0,1.7289003E0,1.146169E0],"tree_param":{"num_deleted":"0","num_feature":"768","num_nodes":"3","size_leaf_vector":"0"}},{"base_weights":[1.1887564E-2,1.9589907E-1,-1.6795257E-1],"categories":[],"categories_nodes":[],"categories_segments":[],"categories_sizes":[],"default_left":[1,0,0],"id":57,"left_children":[1,-1,-1],"loss_changes":[1.5440996E-1,0E0,0E0],"parents":[2147483647,0,0],"right_children":[2,-1,-1],"split_conditions":[-3.0368343E-2,5.876972E-2,-5.0385773E-2],"split_indices":[237,0,0],"split_type":[0,0,0],"sum_hessian":[2.671758E0,1.2764279E0,1.3953302E0],"tree_param":{"num_deleted":"0","num_feature":"768","num_nodes":"3","size_leaf_vector":"0"}},{"base_weights":[-1.6582534E-2,-1.715195E-1,1.7374997E-1],"categories":[],"categories_nodes":[],"categories_segments":[],"categories_sizes":[],"default_left":[1,0,0],"id":58,"left_children":[1,-1,-1],"loss_changes":[1.3075633E-1,0E0,0E0],"parents":[2147483647,0,0],"right_children":[2,-1,-1],"split_conditions":[7.463471E-1,-5.145585E-2,5.2124992E-2],"split_indices":[661,0,0],"split_type":[0,0,0],"sum_hessian":[2.4234111E0,1.3904123E0,1.0329989E0],"tree_param":{"num_deleted":"0","num_feature":"768","num_nodes":"3","size_leaf_vector":"0"}},{"base_weights":[3.5391839E-3,-1.6774932E-1,1.7703804E-1],"categories":[],"categories_nodes":[],"categories_segments":[],"categories_sizes":[],"default_left":[1,0,0],"id":59,"left_children":[1,-1,-1],"loss_changes":[1.3986805E-1,0E0,0E0],"parents":[2147483647,0,0],"right_children":[2,-1,-1],"split_conditions":[8.4646064E-1,-5.0324798E-2,5.3111415E-2],"split_indices":[650,0,0],"split_type":[0,0,0],"sum_hessian":[2.707137E0,1.3789215E0,1.3282155E0],"tree_param":{"num_deleted":"0","num_feature":"768","num_nodes":"3","size_leaf_vector":"0"}},{"base_weights":[1.1626961E-2,-1.4290905E-1,2.0188354E-1],"categories":[],"categories_nodes":[],"categories_segments":[],"categories_sizes":[],"default_left":[1,0,0],"id":60,"left_children":[1,-1,-1],"loss_changes":[1.3291104E-1,0E0,0E0],"parents":[2147483647,0,0],"right_children":[2,-1,-1],"split_conditions":[-3.1886764E-2,-4.2872716E-2,6.0565066E-2],"split_indices":[491,0,0],"split_type":[0,0,0],"sum_hessian":[2.539278E0,1.5384955E0,1.0007825E0],"tree_param":{"num_deleted":"0","num_feature":"768","num_nodes":"3","size_leaf_vector":"0"}},{"base_weights":[-1.50996065E-2,1.4642859E-1,-1.778025E-1],"categories":[],"categories_nodes":[],"categories_segments":[],"categories_sizes":[],"default_left":[1,0,0],"id":61,"left_children":[1,-1,-1],"loss_changes":[1.120246E-1,0E0,0E0],"parents":[2147483647,0,0],"right_children":[2,-1,-1],"split_conditions":[-3.356423E-1,4.392858E-2,-5.334075E-2],"split_indices":[586,0,0],"split_type":[0,0,0],"sum_hessian":[2.2719033E0,1.1902608E0,1.0816425E0],"tree_param":{"num_deleted":"0","num_feature":"768","num_nodes":"3","size_leaf_vector":"0"}},{"base_weights":[2.3137864E-3,1.6330574E-1,-1.7274866E-1],"categories":[],"categories_nodes":[],"categories_segments":[],"categories_sizes":[],"default_left":[1,0,0],"id":62,"left_children":[1,-1,-1],"loss_changes":[1.2874539E-1,0E0,0E0],"parents":[2147483647,0,0],"right_children":[2,-1,-1],"split_conditions":[-4.1135398E-1,4.8991725E-2,-5.18246E-2],"split_indices":[307,0,0],"split_type":[0,0,0],"sum_hessian":[2.5671237E0,1.3722887E0,1.1948351E0],"tree_param":{"num_deleted":"0","num_feature":"768","num_nodes":"3","size_leaf_vector":"0"}},{"base_weights":[1.2852169E-2,-1.6650893E-1,1.6581932E-1],"categories":[],"categories_nodes":[],"categories_segments":[],"categories_sizes":[],"default_left":[1,0,0],"id":63,"left_children":[1,-1,-1],"loss_changes":[1.2102223E-1,0E0,0E0],"parents":[2147483647,0,0],"right_children":[2,-1,-1],"split_conditions":[1.0355926E0,-4.9952682E-2,4.9745798E-2],"split_indices":[159,0,0],"split_type":[0,0,0],"sum_hessian":[2.4046738E0,1.0660975E0,1.3385763E0],"tree_param":{"num_deleted":"0","num_feature":"768","num_nodes":"3","size_leaf_vector":"0"}},{"base_weights":[-1.2630869E-2,1.4838104E-1,-1.5755536E-1],"categories":[],"categories_nodes":[],"categories_segments":[],"categories_sizes":[],"default_left":[1,0,0],"id":64,"left_children":[1,-1,-1],"loss_changes":[9.6917264E-2,0E0,0E0],"parents":[2147483647,0,0],"right_children":[2,-1,-1],"split_conditions":[1.06492534E-1,4.4514313E-2,-4.726661E-2],"split_indices":[531,0,0],"split_type":[0,0,0],"sum_hessian":[2.1515062E0,1.0078871E0,1.1436191E0],"tree_param":{"num_deleted":"0","num_feature":"768","num_nodes":"3","size_leaf_vector":"0"}},{"base_weights":[-1.1500674E-3,1.4797628E-1,-1.6184437E-1],"categories":[],"categories_nodes":[],"categories_segments":[],"categories_sizes":[],"default_left":[1,0,0],"id":65,"left_children":[1,-1,-1],"loss_changes":[1.062744E-1,0E0,0E0],"parents":[2147483647,0,0],"right_children":[2,-1,-1],"split_conditions":[-4.1135398E-1,4.4392884E-2,-4.8553314E-2],"split_indices":[307,0,0],"split_type":[0,0,0],"sum_hessian":[2.435408E0,1.3042197E0,1.1311883E0],"tree_param":{"num_deleted":"0","num_feature":"768","num_nodes":"3","size_leaf_vector":"0"}},{"base_weights":[1.1720605E-2,1.6876307E-1,-1.6013582E-1],"categories":[],"categories_nodes":[],"categories_segments":[],"categories_sizes":[],"default_left":[1,0,0],"id":66,"left_children":[1,-1,-1],"loss_changes":[1.1588227E-1,0E0,0E0],"parents":[2147483647,0,0],"right_children":[2,-1,-1],"split_conditions":[1.7948803E-1,5.0628923E-2,-4.8040748E-2],"split_indices":[329,0,0],"split_type":[0,0,0],"sum_hessian":[2.2923803E0,1.207221E0,1.0851593E0],"tree_param":{"num_deleted":"0","num_feature":"768","num_nodes":"3","size_leaf_vector":"0"}},{"base_weights":[-1.1115638E-2,1.2436495E-1,-1.4057201E-1],"categories":[],"categories_nodes":[],"categories_segments":[],"categories_sizes":[],"default_left":[1,0,0],"id":67,"left_children":[1,-1,-1],"loss_changes":[7.0938915E-2,0E0,0E0],"parents":[2147483647,0,0],"right_children":[2,-1,-1],"split_conditions":[9.242972E-1,3.7309486E-2,-4.2171605E-2],"split_indices":[272,0,0],"split_type":[0,0,0],"sum_hessian":[2.0479057E0,1.0198873E0,1.0280182E0],"tree_param":{"num_deleted":"0","num_feature":"768","num_nodes":"3","size_leaf_vector":"0"}},{"base_weights":[-1.4213488E-3,1.4958504E-1,-1.6065891E-1],"categories":[],"categories_nodes":[],"categories_segments":[],"categories_sizes":[],"default_left":[1,0,0],"id":68,"left_children":[1,-1,-1],"loss_changes":[1.0369876E-1,0E0,0E0],"parents":[2147483647,0,0],"right_children":[2,-1,-1],"split_conditions":[-6.2229294E-1,4.4875514E-2,-4.8197675E-2],"split_indices":[110,0,0],"split_type":[0,0,0],"sum_hessian":[2.313106E0,1.2183505E0,1.0947554E0],"tree_param":{"num_deleted":"0","num_feature":"768","num_nodes":"3","size_leaf_vector":"0"}},{"base_weights":[1.0471792E-2,1.62649E-1,-1.5172553E-1],"categories":[],"categories_nodes":[],"categories_segments":[],"categories_sizes":[],"default_left":[1,0,0],"id":69,"left_children":[1,-1,-1],"loss_changes":[1.0341902E-1,0E0,0E0],"parents":[2147483647,0,0],"right_children":[2,-1,-1],"split_conditions":[7.904651E-1,4.8794705E-2,-4.551766E-2],"split_indices":[545,0,0],"split_type":[0,0,0],"sum_hessian":[2.1901252E0,1.1285291E0,1.0615962E0],"tree_param":{"num_deleted":"0","num_feature":"768","num_nodes":"3","size_leaf_vector":"0"}},{"base_weights":[-1.0093339E-2],"categories":[],"categories_nodes":[],"categories_segments":[],"categories_sizes":[],"default_left":[0],"id":70,"left_children":[-1],"loss_changes":[0E0],"parents":[2147483647],"right_children":[-1],"split_conditions":[-3.0280019E-3],"split_indices":[0],"split_type":[0],"sum_hessian":[1.9572222E0],"tree_param":{"num_deleted":"0","num_feature":"768","num_nodes":"1","size_leaf_vector":"0"}},{"base_weights":[-1.1071824E-3,-1.4953847E-1,1.4983116E-1],"categories":[],"categories_nodes":[],"categories_segments":[],"categories_sizes":[],"default_left":[1,0,0],"id":71,"left_children":[1,-1,-1],"loss_changes":[9.440728E-2,0E0,0E0],"parents":[2147483647,0,0],"right_children":[2,-1,-1],"split_conditions":[8.4646064E-1,-4.4861544E-2,4.494935E-2],"split_indices":[650,0,0],"split_type":[0,0,0],"sum_hessian":[2.2137945E0,1.120843E0,1.0929515E0],"tree_param":{"num_deleted":"0","num_feature":"768","num_nodes":"3","size_leaf_vector":"0"}},{"base_weights":[1.0297724E-2,1.5064622E-1,-1.4105307E-1],"categories":[],"categories_nodes":[],"categories_segments":[],"categories_sizes":[],"default_left":[1,0,0],"id":72,"left_children":[1,-1,-1],"loss_changes":[8.756125E-2,0E0,0E0],"parents":[2147483647,0,0],"right_children":[2,-1,-1],"split_conditions":[7.904651E-1,4.519387E-2,-4.2315923E-2],"split_indices":[545,0,0],"split_type":[0,0,0],"sum_hessian":[2.1217675E0,1.1033134E0,1.018454E0],"tree_param":{"num_deleted":"0","num_feature":"768","num_nodes":"3","size_leaf_vector":"0"}},{"base_weights":[-9.012713E-3],"categories":[],"categories_nodes":[],"categories_segments":[],"categories_sizes":[],"default_left":[0],"id":73,"left_children":[-1],"loss_changes":[0E0],"parents":[2147483647],"right_children":[-1],"split_conditions":[-2.703814E-3],"split_indices":[0],"split_type":[0],"sum_hessian":[1.9010843E0],"tree_param":{"num_deleted":"0","num_feature":"768","num_nodes":"1","size_leaf_vector":"0"}},{"base_weights":[-1.9139249E-3,1.367102E-1,-1.4848775E-1],"categories":[],"categories_nodes":[],"categories_segments":[],"categories_sizes":[],"default_left":[1,0,0],"id":74,"left_children":[1,-1,-1],"loss_changes":[8.400338E-2,0E0,0E0],"parents":[2147483647,0,0],"right_children":[2,-1,-1],"split_conditions":[7.616981E-1,4.1013062E-2,-4.4546325E-2],"split_indices":[756,0,0],"split_type":[0,0,0],"sum_hessian":[2.1352253E0,1.1319568E0,1.0032684E0],"tree_param":{"num_deleted":"0","num_feature":"768","num_nodes":"3","size_leaf_vector":"0"}},{"base_weights":[8.4169395E-3,-1.3077241E-1,1.4408699E-1],"categories":[],"categories_nodes":[],"categories_segments":[],"categories_sizes":[],"default_left":[1,0,0],"id":75,"left_children":[1,-1,-1],"loss_changes":[7.6394565E-2,0E0,0E0],"parents":[2147483647,0,0],"right_children":[2,-1,-1],"split_conditions":[5.56389E-1,-3.9231725E-2,4.3226097E-2],"split_indices":[313,0,0],"split_type":[0,0,0],"sum_hessian":[2.0476854E0,1.028552E0,1.0191333E0],"tree_param":{"num_deleted":"0","num_feature":"768","num_nodes":"3","size_leaf_vector":"0"}},{"base_weights":[-5.541714E-3],"categories":[],"categories_nodes":[],"categories_segments":[],"categories_sizes":[],"default_left":[0],"id":76,"left_children":[-1],"loss_changes":[0E0],"parents":[2147483647],"right_children":[-1],"split_conditions":[-1.6625143E-3],"split_indices":[0],"split_type":[0],"sum_hessian":[1.8675799E0],"tree_param":{"num_deleted":"0","num_feature":"768","num_nodes":"1","size_leaf_vector":"0"}},{"base_weights":[-3.1820592E-3,-1.3743103E-1,1.3011128E-1],"categories":[],"categories_nodes":[],"categories_segments":[],"categories_sizes":[],"default_left":[1,0,0],"id":77,"left_children":[1,-1,-1],"loss_changes":[7.2771735E-2,0E0,0E0],"parents":[2147483647,0,0],"right_children":[2,-1,-1],"split_conditions":[5.275408E-1,-4.1229308E-2,3.9033383E-2],"split_indices":[391,0,0],"split_type":[0,0,0],"sum_hessian":[2.0674472E0,1.0145657E0,1.0528815E0],"tree_param":{"num_deleted":"0","num_feature":"768","num_nodes":"3","size_leaf_vector":"0"}},{"base_weights":[6.676273E-3],"categories":[],"categories_nodes":[],"categories_segments":[],"categories_sizes":[],"default_left":[0],"id":78,"left_children":[-1],"loss_changes":[0E0],"parents":[2147483647],"right_children":[-1],"split_conditions":[2.002882E-3],"split_indices":[0],"split_type":[0],"sum_hessian":[1.9823895E0],"tree_param":{"num_deleted":"0","num_feature":"768","num_nodes":"1","size_leaf_vector":"0"}},{"base_weights":[-4.576166E-3],"categories":[],"categories_nodes":[],"categories_segments":[],"categories_sizes":[],"default_left":[0],"id":79,"left_children":[-1],"loss_changes":[0E0],"parents":[2147483647],"right_children":[-1],"split_conditions":[-1.3728499E-3],"split_indices":[0],"split_type":[0],"sum_hessian":[1.8336413E0],"tree_param":{"num_deleted":"0","num_feature":"768","num_nodes":"1","size_leaf_vector":"0"}},{"base_weights":[-2.305399E-3,1.186036E-1,-1.22081436E-1],"categories":[],"categories_nodes":[],"categories_segments":[],"categories_sizes":[],"default_left":[1,0,0],"id":80,"left_children":[1,-1,-1],"loss_changes":[5.809943E-2,0E0,0E0],"parents":[2147483647,0,0],"right_children":[2,-1,-1],"split_conditions":[6.1271065E-1,3.5581082E-2,-3.662443E-2],"split_indices":[293,0,0],"split_type":[0,0,0],"sum_hessian":[2.0120237E0,1.0061476E0,1.0058762E0],"tree_param":{"num_deleted":"0","num_feature":"768","num_nodes":"3","size_leaf_vector":"0"}},{"base_weights":[5.6067863E-3],"categories":[],"categories_nodes":[],"categories_segments":[],"categories_sizes":[],"default_left":[0],"id":81,"left_children":[-1],"loss_changes":[0E0],"parents":[2147483647],"right_children":[-1],"split_conditions":[1.682036E-3],"split_indices":[0],"split_type":[0],"sum_hessian":[1.9670954E0],"tree_param":{"num_deleted":"0","num_feature":"768","num_nodes":"1","size_leaf_vector":"0"}},{"base_weights":[-3.7724054E-3],"categories":[],"categories_nodes":[],"categories_segments":[],"categories_sizes":[],"default_left":[0],"id":82,"left_children":[-1],"loss_changes":[0E0],"parents":[2147483647],"right_children":[-1],"split_conditions":[-1.1317217E-3],"split_indices":[0],"split_type":[0],"sum_hessian":[1.8176632E0],"tree_param":{"num_deleted":"0","num_feature":"768","num_nodes":"1","size_leaf_vector":"0"}},{"base_weights":[-2.0155485E-3],"categories":[],"categories_nodes":[],"categories_segments":[],"categories_sizes":[],"default_left":[0],"id":83,"left_children":[-1],"loss_changes":[0E0],"parents":[2147483647],"right_children":[-1],"split_conditions":[-6.0466456E-4],"split_indices":[0],"split_type":[0],"sum_hessian":[1.979834E0],"tree_param":{"num_deleted":"0","num_feature":"768","num_nodes":"1","size_leaf_vector":"0"}},{"base_weights":[4.7684824E-3],"categories":[],"categories_nodes":[],"categories_segments":[],"categories_sizes":[],"default_left":[0],"id":84,"left_children":[-1],"loss_changes":[0E0],"parents":[2147483647],"right_children":[-1],"split_conditions":[1.4305448E-3],"split_indices":[0],"split_type":[0],"sum_hessian":[1.9671793E0],"tree_param":{"num_deleted":"0","num_feature":"768","num_nodes":"1","size_leaf_vector":"0"}},{"base_weights":[-3.2364044E-3],"categories":[],"categories_nodes":[],"categories_segments":[],"categories_sizes":[],"default_left":[0],"id":85,"left_children":[-1],"loss_changes":[0E0],"parents":[2147483647],"right_children":[-1],"split_conditions":[-9.7092136E-4],"split_indices":[0],"split_type":[0],"sum_hessian":[1.8174608E0],"tree_param":{"num_deleted":"0","num_feature":"768","num_nodes":"1","size_leaf_vector":"0"}},{"base_weights":[-1.6879991E-3],"categories":[],"categories_nodes":[],"categories_segments":[],"categories_sizes":[],"default_left":[0],"id":86,"left_children":[-1],"loss_changes":[0E0],"parents":[2147483647],"right_children":[-1],"split_conditions":[-5.063998E-4],"split_indices":[0],"split_type":[0],"sum_hessian":[1.9799002E0],"tree_param":{"num_deleted":"0","num_feature":"768","num_nodes":"1","size_leaf_vector":"0"}},{"base_weights":[4.0555843E-3],"categories":[],"categories_nodes":[],"categories_segments":[],"categories_sizes":[],"default_left":[0],"id":87,"left_children":[-1],"loss_changes":[0E0],"parents":[2147483647],"right_children":[-1],"split_conditions":[1.2166754E-3],"split_indices":[0],"split_type":[0],"sum_hessian":[1.9672577E0],"tree_param":{"num_deleted":"0","num_feature":"768","num_nodes":"1","size_leaf_vector":"0"}},{"base_weights":[-2.7766582E-3],"categories":[],"categories_nodes":[],"categories_segments":[],"categories_sizes":[],"default_left":[0],"id":88,"left_children":[-1],"loss_changes":[0E0],"parents":[2147483647],"right_children":[-1],"split_conditions":[-8.329975E-4],"split_indices":[0],"split_type":[0],"sum_hessian":[1.8172923E0],"tree_param":{"num_deleted":"0","num_feature":"768","num_nodes":"1","size_leaf_vector":"0"}},{"base_weights":[-1.413244E-3],"categories":[],"categories_nodes":[],"categories_segments":[],"categories_sizes":[],"default_left":[0],"id":89,"left_children":[-1],"loss_changes":[0E0],"parents":[2147483647],"right_children":[-1],"split_conditions":[-4.2397322E-4],"split_indices":[0],"split_type":[0],"sum_hessian":[1.9799612E0],"tree_param":{"num_deleted":"0","num_feature":"768","num_nodes":"1","size_leaf_vector":"0"}},{"base_weights":[3.4494451E-3],"categories":[],"categories_nodes":[],"categories_segments":[],"categories_sizes":[],"default_left":[0],"id":90,"left_children":[-1],"loss_changes":[0E0],"parents":[2147483647],"right_children":[-1],"split_conditions":[1.0348336E-3],"split_indices":[0],"split_type":[0],"sum_hessian":[1.9673301E0],"tree_param":{"num_deleted":"0","num_feature":"768","num_nodes":"1","size_leaf_vector":"0"}},{"base_weights":[-2.3822186E-3],"categories":[],"categories_nodes":[],"categories_segments":[],"categories_sizes":[],"default_left":[0],"id":91,"left_children":[-1],"loss_changes":[0E0],"parents":[2147483647],"right_children":[-1],"split_conditions":[-7.146656E-4],"split_indices":[0],"split_type":[0],"sum_hessian":[1.8171521E0],"tree_param":{"num_deleted":"0","num_feature":"768","num_nodes":"1","size_leaf_vector":"0"}},{"base_weights":[-1.1828154E-3],"categories":[],"categories_nodes":[],"categories_segments":[],"categories_sizes":[],"default_left":[0],"id":92,"left_children":[-1],"loss_changes":[0E0],"parents":[2147483647],"right_children":[-1],"split_conditions":[-3.5484464E-4],"split_indices":[0],"split_type":[0],"sum_hessian":[1.9800162E0],"tree_param":{"num_deleted":"0","num_feature":"768","num_nodes":"1","size_leaf_vector":"0"}},{"base_weights":[2.9341553E-3],"categories":[],"categories_nodes":[],"categories_segments":[],"categories_sizes":[],"default_left":[0],"id":93,"left_children":[-1],"loss_changes":[0E0],"parents":[2147483647],"right_children":[-1],"split_conditions":[8.8024663E-4],"split_indices":[0],"split_type":[0],"sum_hessian":[1.9673963E0],"tree_param":{"num_deleted":"0","num_feature":"768","num_nodes":"1","size_leaf_vector":"0"}},{"base_weights":[-2.0437597E-3],"categories":[],"categories_nodes":[],"categories_segments":[],"categories_sizes":[],"default_left":[0],"id":94,"left_children":[-1],"loss_changes":[0E0],"parents":[2147483647],"right_children":[-1],"split_conditions":[-6.1312795E-4],"split_indices":[0],"split_type":[0],"sum_hessian":[1.8170353E0],"tree_param":{"num_deleted":"0","num_feature":"768","num_nodes":"1","size_leaf_vector":"0"}},{"base_weights":[-9.896477E-4],"categories":[],"categories_nodes":[],"categories_segments":[],"categories_sizes":[],"default_left":[0],"id":95,"left_children":[-1],"loss_changes":[0E0],"parents":[2147483647],"right_children":[-1],"split_conditions":[-2.9689432E-4],"split_indices":[0],"split_type":[0],"sum_hessian":[1.980066E0],"tree_param":{"num_deleted":"0","num_feature":"768","num_nodes":"1","size_leaf_vector":"0"}},{"base_weights":[2.495738E-3],"categories":[],"categories_nodes":[],"categories_segments":[],"categories_sizes":[],"default_left":[0],"id":96,"left_children":[-1],"loss_changes":[0E0],"parents":[2147483647],"right_children":[-1],"split_conditions":[7.487214E-4],"split_indices":[0],"split_type":[0],"sum_hessian":[1.9674542E0],"tree_param":{"num_deleted":"0","num_feature":"768","num_nodes":"1","size_leaf_vector":"0"}},{"base_weights":[-1.7532896E-3],"categories":[],"categories_nodes":[],"categories_segments":[],"categories_sizes":[],"default_left":[0],"id":97,"left_children":[-1],"loss_changes":[0E0],"parents":[2147483647],"right_children":[-1],"split_conditions":[-5.259869E-4],"split_indices":[0],"split_type":[0],"sum_hessian":[1.8169379E0],"tree_param":{"num_deleted":"0","num_feature":"768","num_nodes":"1","size_leaf_vector":"0"}},{"base_weights":[-8.278436E-4],"categories":[],"categories_nodes":[],"categories_segments":[],"categories_sizes":[],"default_left":[0],"id":98,"left_children":[-1],"loss_changes":[0E0],"parents":[2147483647],"right_children":[-1],"split_conditions":[-2.4835308E-4],"split_indices":[0],"split_type":[0],"sum_hessian":[1.9801095E0],"tree_param":{"num_deleted":"0","num_feature":"768","num_nodes":"1","size_leaf_vector":"0"}},{"base_weights":[2.122989E-3],"categories":[],"categories_nodes":[],"categories_segments":[],"categories_sizes":[],"default_left":[0],"id":99,"left_children":[-1],"loss_changes":[0E0],"parents":[2147483647],"right_children":[-1],"split_conditions":[6.368967E-4],"split_indices":[0],"split_type":[0],"sum_hessian":[1.9675058E0],"tree_param":{"num_deleted":"0","num_feature":"768","num_nodes":"1","size_leaf_vector":"0"}},{"base_weights":[-1.5041108E-3],"categories":[],"categories_nodes":[],"categories_segments":[],"categories_sizes":[],"default_left":[0],"id":100,"left_children":[-1],"loss_changes":[0E0],"parents":[2147483647],"right_children":[-1],"split_conditions":[-4.5123324E-4],"split_indices":[0],"split_type":[0],"sum_hessian":[1.8168563E0],"tree_param":{"num_deleted":"0","num_feature":"768","num_nodes":"1","size_leaf_vector":"0"}},{"base_weights":[-6.9223373E-4],"categories":[],"categories_nodes":[],"categories_segments":[],"categories_sizes":[],"default_left":[0],"id":101,"left_children":[-1],"loss_changes":[0E0],"parents":[2147483647],"right_children":[-1],"split_conditions":[-2.0767013E-4],"split_indices":[0],"split_type":[0],"sum_hessian":[1.9801483E0],"tree_param":{"num_deleted":"0","num_feature":"768","num_nodes":"1","size_leaf_vector":"0"}},{"base_weights":[1.8059561E-3],"categories":[],"categories_nodes":[],"categories_segments":[],"categories_sizes":[],"default_left":[0],"id":102,"left_children":[-1],"loss_changes":[0E0],"parents":[2147483647],"right_children":[-1],"split_conditions":[5.4178684E-4],"split_indices":[0],"split_type":[0],"sum_hessian":[1.967551E0],"tree_param":{"num_deleted":"0","num_feature":"768","num_nodes":"1","size_leaf_vector":"0"}},{"base_weights":[-1.2903726E-3],"categories":[],"categories_nodes":[],"categories_segments":[],"categories_sizes":[],"default_left":[0],"id":103,"left_children":[-1],"loss_changes":[0E0],"parents":[2147483647],"right_children":[-1],"split_conditions":[-3.871118E-4],"split_indices":[0],"split_type":[0],"sum_hessian":[1.8167874E0],"tree_param":{"num_deleted":"0","num_feature":"768","num_nodes":"1","size_leaf_vector":"0"}},{"base_weights":[-5.787384E-4],"categories":[],"categories_nodes":[],"categories_segments":[],"categories_sizes":[],"default_left":[0],"id":104,"left_children":[-1],"loss_changes":[0E0],"parents":[2147483647],"right_children":[-1],"split_conditions":[-1.7362152E-4],"split_indices":[0],"split_type":[0],"sum_hessian":[1.9801817E0],"tree_param":{"num_deleted":"0","num_feature":"768","num_nodes":"1","size_leaf_vector":"0"}},{"base_weights":[1.536274E-3],"categories":[],"categories_nodes":[],"categories_segments":[],"categories_sizes":[],"default_left":[0],"id":105,"left_children":[-1],"loss_changes":[0E0],"parents":[2147483647],"right_children":[-1],"split_conditions":[4.608822E-4],"split_indices":[0],"split_type":[0],"sum_hessian":[1.96759E0],"tree_param":{"num_deleted":"0","num_feature":"768","num_nodes":"1","size_leaf_vector":"0"}},{"base_weights":[-1.1070675E-3],"categories":[],"categories_nodes":[],"categories_segments":[],"categories_sizes":[],"default_left":[0],"id":106,"left_children":[-1],"loss_changes":[0E0],"parents":[2147483647],"right_children":[-1],"split_conditions":[-3.3212025E-4],"split_indices":[0],"split_type":[0],"sum_hessian":[1.8167291E0],"tree_param":{"num_deleted":"0","num_feature":"768","num_nodes":"1","size_leaf_vector":"0"}},{"base_weights":[-4.8362886E-4],"categories":[],"categories_nodes":[],"categories_segments":[],"categories_sizes":[],"default_left":[0],"id":107,"left_children":[-1],"loss_changes":[0E0],"parents":[2147483647],"right_children":[-1],"split_conditions":[-1.4508866E-4],"split_indices":[0],"split_type":[0],"sum_hessian":[1.9802113E0],"tree_param":{"num_deleted":"0","num_feature":"768","num_nodes":"1","size_leaf_vector":"0"}},{"base_weights":[1.3069622E-3],"categories":[],"categories_nodes":[],"categories_segments":[],"categories_sizes":[],"default_left":[0],"id":108,"left_children":[-1],"loss_changes":[0E0],"parents":[2147483647],"right_children":[-1],"split_conditions":[3.920887E-4],"split_indices":[0],"split_type":[0],"sum_hessian":[1.9676242E0],"tree_param":{"num_deleted":"0","num_feature":"768","num_nodes":"1","size_leaf_vector":"0"}},{"base_weights":[-9.4972306E-4],"categories":[],"categories_nodes":[],"categories_segments":[],"categories_sizes":[],"default_left":[0],"id":109,"left_children":[-1],"loss_changes":[0E0],"parents":[2147483647],"right_children":[-1],"split_conditions":[-2.8491693E-4],"split_indices":[0],"split_type":[0],"sum_hessian":[1.8166802E0],"tree_param":{"num_deleted":"0","num_feature":"768","num_nodes":"1","size_leaf_vector":"0"}},{"base_weights":[-4.039269E-4],"categories":[],"categories_nodes":[],"categories_segments":[],"categories_sizes":[],"default_left":[0],"id":110,"left_children":[-1],"loss_changes":[0E0],"parents":[2147483647],"right_children":[-1],"split_conditions":[-1.2117808E-4],"split_indices":[0],"split_type":[0],"sum_hessian":[1.9802376E0],"tree_param":{"num_deleted":"0","num_feature":"768","num_nodes":"1","size_leaf_vector":"0"}},{"base_weights":[1.1118305E-3],"categories":[],"categories_nodes":[],"categories_segments":[],"categories_sizes":[],"default_left":[0],"id":111,"left_children":[-1],"loss_changes":[0E0],"parents":[2147483647],"right_children":[-1],"split_conditions":[3.3354916E-4],"split_indices":[0],"split_type":[0],"sum_hessian":[1.9676529E0],"tree_param":{"num_deleted":"0","num_feature":"768","num_nodes":"1","size_leaf_vector":"0"}},{"base_weights":[-8.1483007E-4],"categories":[],"categories_nodes":[],"categories_segments":[],"categories_sizes":[],"default_left":[0],"id":112,"left_children":[-1],"loss_changes":[0E0],"parents":[2147483647],"right_children":[-1],"split_conditions":[-2.4444904E-4],"split_indices":[0],"split_type":[0],"sum_hessian":[1.8166382E0],"tree_param":{"num_deleted":"0","num_feature":"768","num_nodes":"1","size_leaf_vector":"0"}},{"base_weights":[-3.3723528E-4],"categories":[],"categories_nodes":[],"categories_segments":[],"categories_sizes":[],"default_left":[0],"id":113,"left_children":[-1],"loss_changes":[0E0],"parents":[2147483647],"right_children":[-1],"split_conditions":[-1.0117059E-4],"split_indices":[0],"split_type":[0],"sum_hessian":[1.9802601E0],"tree_param":{"num_deleted":"0","num_feature":"768","num_nodes":"1","size_leaf_vector":"0"}},{"base_weights":[9.4596384E-4],"categories":[],"categories_nodes":[],"categories_segments":[],"categories_sizes":[],"default_left":[0],"id":114,"left_children":[-1],"loss_changes":[0E0],"parents":[2147483647],"right_children":[-1],"split_conditions":[2.8378915E-4],"split_indices":[0],"split_type":[0],"sum_hessian":[1.9676783E0],"tree_param":{"num_deleted":"0","num_feature":"768","num_nodes":"1","size_leaf_vector":"0"}},{"base_weights":[-6.988411E-4],"categories":[],"categories_nodes":[],"categories_segments":[],"categories_sizes":[],"default_left":[0],"id":115,"left_children":[-1],"loss_changes":[0E0],"parents":[2147483647],"right_children":[-1],"split_conditions":[-2.0965234E-4],"split_indices":[0],"split_type":[0],"sum_hessian":[1.816604E0],"tree_param":{"num_deleted":"0","num_feature":"768","num_nodes":"1","size_leaf_vector":"0"}},{"base_weights":[-2.8145147E-4],"categories":[],"categories_nodes":[],"categories_segments":[],"categories_sizes":[],"default_left":[0],"id":116,"left_children":[-1],"loss_changes":[0E0],"parents":[2147483647],"right_children":[-1],"split_conditions":[-8.443544E-5],"split_indices":[0],"split_type":[0],"sum_hessian":[1.9802797E0],"tree_param":{"num_deleted":"0","num_feature":"768","num_nodes":"1","size_leaf_vector":"0"}},{"base_weights":[8.049398E-4],"categories":[],"categories_nodes":[],"categories_segments":[],"categories_sizes":[],"default_left":[0],"id":117,"left_children":[-1],"loss_changes":[0E0],"parents":[2147483647],"right_children":[-1],"split_conditions":[2.4148195E-4],"split_indices":[0],"split_type":[0],"sum_hessian":[1.9677004E0],"tree_param":{"num_deleted":"0","num_feature":"768","num_nodes":"1","size_leaf_vector":"0"}},{"base_weights":[-5.9956306E-4],"categories":[],"categories_nodes":[],"categories_segments":[],"categories_sizes":[],"default_left":[0],"id":118,"left_children":[-1],"loss_changes":[0E0],"parents":[2147483647],"right_children":[-1],"split_conditions":[-1.7986892E-4],"split_indices":[0],"split_type":[0],"sum_hessian":[1.8165739E0],"tree_param":{"num_deleted":"0","num_feature":"768","num_nodes":"1","size_leaf_vector":"0"}},{"base_weights":[-2.3483619E-4],"categories":[],"categories_nodes":[],"categories_segments":[],"categories_sizes":[],"default_left":[0],"id":119,"left_children":[-1],"loss_changes":[0E0],"parents":[2147483647],"right_children":[-1],"split_conditions":[-7.045086E-5],"split_indices":[0],"split_type":[0],"sum_hessian":[1.9802965E0],"tree_param":{"num_deleted":"0","num_feature":"768","num_nodes":"1","size_leaf_vector":"0"}},{"base_weights":[6.8492646E-4],"categories":[],"categories_nodes":[],"categories_segments":[],"categories_sizes":[],"default_left":[0],"id":120,"left_children":[-1],"loss_changes":[0E0],"parents":[2147483647],"right_children":[-1],"split_conditions":[2.0547795E-4],"split_indices":[0],"split_type":[0],"sum_hessian":[1.967719E0],"tree_param":{"num_deleted":"0","num_feature":"768","num_nodes":"1","size_leaf_vector":"0"}},{"base_weights":[-5.1429257E-4],"categories":[],"categories_nodes":[],"categories_segments":[],"categories_sizes":[],"default_left":[0],"id":121,"left_children":[-1],"loss_changes":[0E0],"parents":[2147483647],"right_children":[-1],"split_conditions":[-1.5428777E-4],"split_indices":[0],"split_type":[0],"sum_hessian":[1.816549E0],"tree_param":{"num_deleted":"0","num_feature":"768","num_nodes":"1","size_leaf_vector":"0"}},{"base_weights":[-1.9590235E-4],"categories":[],"categories_nodes":[],"categories_segments":[],"categories_sizes":[],"default_left":[0],"id":122,"left_children":[-1],"loss_changes":[0E0],"parents":[2147483647],"right_children":[-1],"split_conditions":[-5.8770707E-5],"split_indices":[0],"split_type":[0],"sum_hessian":[1.9803106E0],"tree_param":{"num_deleted":"0","num_feature":"768","num_nodes":"1","size_leaf_vector":"0"}},{"base_weights":[5.8271637E-4],"categories":[],"categories_nodes":[],"categories_segments":[],"categories_sizes":[],"default_left":[0],"id":123,"left_children":[-1],"loss_changes":[0E0],"parents":[2147483647],"right_children":[-1],"split_conditions":[1.7481492E-4],"split_indices":[0],"split_type":[0],"sum_hessian":[1.9677342E0],"tree_param":{"num_deleted":"0","num_feature":"768","num_nodes":"1","size_leaf_vector":"0"}},{"base_weights":[-4.412439E-4],"categories":[],"categories_nodes":[],"categories_segments":[],"categories_sizes":[],"default_left":[0],"id":124,"left_children":[-1],"loss_changes":[0E0],"parents":[2147483647],"right_children":[-1],"split_conditions":[-1.3237317E-4],"split_indices":[0],"split_type":[0],"sum_hessian":[1.8165272E0],"tree_param":{"num_deleted":"0","num_feature":"768","num_nodes":"1","size_leaf_vector":"0"}},{"base_weights":[-1.6328986E-4],"categories":[],"categories_nodes":[],"categories_segments":[],"categories_sizes":[],"default_left":[0],"id":125,"left_children":[-1],"loss_changes":[0E0],"parents":[2147483647],"right_children":[-1],"split_conditions":[-4.898696E-5],"split_indices":[0],"split_type":[0],"sum_hessian":[1.9803231E0],"tree_param":{"num_deleted":"0","num_feature":"768","num_nodes":"1","size_leaf_vector":"0"}},{"base_weights":[4.958462E-4],"categories":[],"categories_nodes":[],"categories_segments":[],"categories_sizes":[],"default_left":[0],"id":126,"left_children":[-1],"loss_changes":[0E0],"parents":[2147483647],"right_children":[-1],"split_conditions":[1.4875387E-4],"split_indices":[0],"split_type":[0],"sum_hessian":[1.9677477E0],"tree_param":{"num_deleted":"0","num_feature":"768","num_nodes":"1","size_leaf_vector":"0"}},{"base_weights":[-3.7852692E-4],"categories":[],"categories_nodes":[],"categories_segments":[],"categories_sizes":[],"default_left":[0],"id":127,"left_children":[-1],"loss_changes":[0E0],"parents":[2147483647],"right_children":[-1],"split_conditions":[-1.1355808E-4],"split_indices":[0],"split_type":[0],"sum_hessian":[1.816509E0],"tree_param":{"num_deleted":"0","num_feature":"768","num_nodes":"1","size_leaf_vector":"0"}},{"base_weights":[-1.360005E-4],"categories":[],"categories_nodes":[],"categories_segments":[],"categories_sizes":[],"default_left":[0],"id":128,"left_children":[-1],"loss_changes":[0E0],"parents":[2147483647],"right_children":[-1],"split_conditions":[-4.080015E-5],"split_indices":[0],"split_type":[0],"sum_hessian":[1.9803343E0],"tree_param":{"num_deleted":"0","num_feature":"768","num_nodes":"1","size_leaf_vector":"0"}},{"base_weights":[4.219436E-4],"categories":[],"categories_nodes":[],"categories_segments":[],"categories_sizes":[],"default_left":[0],"id":129,"left_children":[-1],"loss_changes":[0E0],"parents":[2147483647],"right_children":[-1],"split_conditions":[1.265831E-4],"split_indices":[0],"split_type":[0],"sum_hessian":[1.9677591E0],"tree_param":{"num_deleted":"0","num_feature":"768","num_nodes":"1","size_leaf_vector":"0"}},{"base_weights":[-3.245627E-4],"categories":[],"categories_nodes":[],"categories_segments":[],"categories_sizes":[],"default_left":[0],"id":130,"left_children":[-1],"loss_changes":[0E0],"parents":[2147483647],"right_children":[-1],"split_conditions":[-9.736881E-5],"split_indices":[0],"split_type":[0],"sum_hessian":[1.8164943E0],"tree_param":{"num_deleted":"0","num_feature":"768","num_nodes":"1","size_leaf_vector":"0"}},{"base_weights":[-1.1331265E-4],"categories":[],"categories_nodes":[],"categories_segments":[],"categories_sizes":[],"default_left":[0],"id":131,"left_children":[-1],"loss_changes":[0E0],"parents":[2147483647],"right_children":[-1],"split_conditions":[-3.3993798E-5],"split_indices":[0],"split_type":[0],"sum_hessian":[1.9803433E0],"tree_param":{"num_deleted":"0","num_feature":"768","num_nodes":"1","size_leaf_vector":"0"}},{"base_weights":[3.5902113E-4],"categories":[],"categories_nodes":[],"categories_segments":[],"categories_sizes":[],"default_left":[0],"id":132,"left_children":[-1],"loss_changes":[0E0],"parents":[2147483647],"right_children":[-1],"split_conditions":[1.0770634E-4],"split_indices":[0],"split_type":[0],"sum_hessian":[1.9677688E0],"tree_param":{"num_deleted":"0","num_feature":"768","num_nodes":"1","size_leaf_vector":"0"}},{"base_weights":[-2.7859057E-4],"categories":[],"categories_nodes":[],"categories_segments":[],"categories_sizes":[],"default_left":[0],"id":133,"left_children":[-1],"loss_changes":[0E0],"parents":[2147483647],"right_children":[-1],"split_conditions":[-8.357717E-5],"split_indices":[0],"split_type":[0],"sum_hessian":[1.8164803E0],"tree_param":{"num_deleted":"0","num_feature":"768","num_nodes":"1","size_leaf_vector":"0"}},{"base_weights":[-9.4276074E-5],"categories":[],"categories_nodes":[],"categories_segments":[],"categories_sizes":[],"default_left":[0],"id":134,"left_children":[-1],"loss_changes":[0E0],"parents":[2147483647],"right_children":[-1],"split_conditions":[-2.8282824E-5],"split_indices":[0],"split_type":[0],"sum_hessian":[1.9803514E0],"tree_param":{"num_deleted":"0","num_feature":"768","num_nodes":"1","size_leaf_vector":"0"}},{"base_weights":[3.0564307E-4],"categories":[],"categories_nodes":[],"categories_segments":[],"categories_sizes":[],"default_left":[0],"id":135,"left_children":[-1],"loss_changes":[0E0],"parents":[2147483647],"right_children":[-1],"split_conditions":[9.169293E-5],"split_indices":[0],"split_type":[0],"sum_hessian":[1.9677778E0],"tree_param":{"num_deleted":"0","num_feature":"768","num_nodes":"1","size_leaf_vector":"0"}},{"base_weights":[-2.3887334E-4],"categories":[],"categories_nodes":[],"categories_segments":[],"categories_sizes":[],"default_left":[0],"id":136,"left_children":[-1],"loss_changes":[0E0],"parents":[2147483647],"right_children":[-1],"split_conditions":[-7.1662005E-5],"split_indices":[0],"split_type":[0],"sum_hessian":[1.8164697E0],"tree_param":{"num_deleted":"0","num_feature":"768","num_nodes":"1","size_leaf_vector":"0"}},{"base_weights":[-7.853528E-5],"categories":[],"categories_nodes":[],"categories_segments":[],"categories_sizes":[],"default_left":[0],"id":137,"left_children":[-1],"loss_changes":[0E0],"parents":[2147483647],"right_children":[-1],"split_conditions":[-2.3560586E-5],"split_indices":[0],"split_type":[0],"sum_hessian":[1.9803578E0],"tree_param":{"num_deleted":"0","num_feature":"768","num_nodes":"1","size_leaf_vector":"0"}},{"base_weights":[2.6002983E-4],"categories":[],"categories_nodes":[],"categories_segments":[],"categories_sizes":[],"default_left":[0],"id":138,"left_children":[-1],"loss_changes":[0E0],"parents":[2147483647],"right_children":[-1],"split_conditions":[7.8008954E-5],"split_indices":[0],"split_type":[0],"sum_hessian":[1.9677844E0],"tree_param":{"num_deleted":"0","num_feature":"768","num_nodes":"1","size_leaf_vector":"0"}},{"base_weights":[-2.0493852E-4],"categories":[],"categories_nodes":[],"categories_segments":[],"categories_sizes":[],"default_left":[0],"id":139,"left_children":[-1],"loss_changes":[0E0],"parents":[2147483647],"right_children":[-1],"split_conditions":[-6.148156E-5],"split_indices":[0],"split_type":[0],"sum_hessian":[1.81646E0],"tree_param":{"num_deleted":"0","num_feature":"768","num_nodes":"1","size_leaf_vector":"0"}},{"base_weights":[-6.516414E-5],"categories":[],"categories_nodes":[],"categories_segments":[],"categories_sizes":[],"default_left":[0],"id":140,"left_children":[-1],"loss_changes":[0E0],"parents":[2147483647],"right_children":[-1],"split_conditions":[-1.9549243E-5],"split_indices":[0],"split_type":[0],"sum_hessian":[1.9803646E0],"tree_param":{"num_deleted":"0","num_feature":"768","num_nodes":"1","size_leaf_vector":"0"}},{"base_weights":[2.2135487E-4],"categories":[],"categories_nodes":[],"categories_segments":[],"categories_sizes":[],"default_left":[0],"id":141,"left_children":[-1],"loss_changes":[0E0],"parents":[2147483647],"right_children":[-1],"split_conditions":[6.6406465E-5],"split_indices":[0],"split_type":[0],"sum_hessian":[1.9677906E0],"tree_param":{"num_deleted":"0","num_feature":"768","num_nodes":"1","size_leaf_vector":"0"}},{"base_weights":[-1.7575081E-4],"categories":[],"categories_nodes":[],"categories_segments":[],"categories_sizes":[],"default_left":[0],"id":142,"left_children":[-1],"loss_changes":[0E0],"parents":[2147483647],"right_children":[-1],"split_conditions":[-5.2725245E-5],"split_indices":[0],"split_type":[0],"sum_hessian":[1.8164521E0],"tree_param":{"num_deleted":"0","num_feature":"768","num_nodes":"1","size_leaf_vector":"0"}},{"base_weights":[-5.4236883E-5],"categories":[],"categories_nodes":[],"categories_segments":[],"categories_sizes":[],"default_left":[0],"id":143,"left_children":[-1],"loss_changes":[0E0],"parents":[2147483647],"right_children":[-1],"split_conditions":[-1.6271066E-5],"split_indices":[0],"split_type":[0],"sum_hessian":[1.9803691E0],"tree_param":{"num_deleted":"0","num_feature":"768","num_nodes":"1","size_leaf_vector":"0"}},{"base_weights":[1.8840685E-4],"categories":[],"categories_nodes":[],"categories_segments":[],"categories_sizes":[],"default_left":[0],"id":144,"left_children":[-1],"loss_changes":[0E0],"parents":[2147483647],"right_children":[-1],"split_conditions":[5.6522058E-5],"split_indices":[0],"split_type":[0],"sum_hessian":[1.9677956E0],"tree_param":{"num_deleted":"0","num_feature":"768","num_nodes":"1","size_leaf_vector":"0"}},{"base_weights":[-1.507919E-4],"categories":[],"categories_nodes":[],"categories_segments":[],"categories_sizes":[],"default_left":[0],"id":145,"left_children":[-1],"loss_changes":[0E0],"parents":[2147483647],"right_children":[-1],"split_conditions":[-4.5237568E-5],"split_indices":[0],"split_type":[0],"sum_hessian":[1.8164449E0],"tree_param":{"num_deleted":"0","num_feature":"768","num_nodes":"1","size_leaf_vector":"0"}},{"base_weights":[-4.5097557E-5],"categories":[],"categories_nodes":[],"categories_segments":[],"categories_sizes":[],"default_left":[0],"id":146,"left_children":[-1],"loss_changes":[0E0],"parents":[2147483647],"right_children":[-1],"split_conditions":[-1.3529268E-5],"split_indices":[0],"split_type":[0],"sum_hessian":[1.9803731E0],"tree_param":{"num_deleted":"0","num_feature":"768","num_nodes":"1","size_leaf_vector":"0"}},{"base_weights":[1.6028882E-4],"categories":[],"categories_nodes":[],"categories_segments":[],"categories_sizes":[],"default_left":[0],"id":147,"left_children":[-1],"loss_changes":[0E0],"parents":[2147483647],"right_children":[-1],"split_conditions":[4.8086647E-5],"split_indices":[0],"split_type":[0],"sum_hessian":[1.9677997E0],"tree_param":{"num_deleted":"0","num_feature":"768","num_nodes":"1","size_leaf_vector":"0"}},{"base_weights":[-1.2945864E-4],"categories":[],"categories_nodes":[],"categories_segments":[],"categories_sizes":[],"default_left":[0],"id":148,"left_children":[-1],"loss_changes":[0E0],"parents":[2147483647],"right_children":[-1],"split_conditions":[-3.8837592E-5],"split_indices":[0],"split_type":[0],"sum_hessian":[1.8164386E0],"tree_param":{"num_deleted":"0","num_feature":"768","num_nodes":"1","size_leaf_vector":"0"}},{"base_weights":[-3.736615E-5],"categories":[],"categories_nodes":[],"categories_segments":[],"categories_sizes":[],"default_left":[0],"id":149,"left_children":[-1],"loss_changes":[0E0],"parents":[2147483647],"right_children":[-1],"split_conditions":[-1.1209845E-5],"split_indices":[0],"split_type":[0],"sum_hessian":[1.9803774E0],"tree_param":{"num_deleted":"0","num_feature":"768","num_nodes":"1","size_leaf_vector":"0"}},{"base_weights":[1.3654992E-4],"categories":[],"categories_nodes":[],"categories_segments":[],"categories_sizes":[],"default_left":[0],"id":150,"left_children":[-1],"loss_changes":[0E0],"parents":[2147483647],"right_children":[-1],"split_conditions":[4.0964977E-5],"split_indices":[0],"split_type":[0],"sum_hessian":[1.9678038E0],"tree_param":{"num_deleted":"0","num_feature":"768","num_nodes":"1","size_leaf_vector":"0"}},{"base_weights":[-1.1090901E-4],"categories":[],"categories_nodes":[],"categories_segments":[],"categories_sizes":[],"default_left":[0],"id":151,"left_children":[-1],"loss_changes":[0E0],"parents":[2147483647],"right_children":[-1],"split_conditions":[-3.3272703E-5],"split_indices":[0],"split_type":[0],"sum_hessian":[1.8164343E0],"tree_param":{"num_deleted":"0","num_feature":"768","num_nodes":"1","size_leaf_vector":"0"}},{"base_weights":[-3.1009553E-5],"categories":[],"categories_nodes":[],"categories_segments":[],"categories_sizes":[],"default_left":[0],"id":152,"left_children":[-1],"loss_changes":[0E0],"parents":[2147483647],"right_children":[-1],"split_conditions":[-9.302867E-6],"split_indices":[0],"split_type":[0],"sum_hessian":[1.9803804E0],"tree_param":{"num_deleted":"0","num_feature":"768","num_nodes":"1","size_leaf_vector":"0"}},{"base_weights":[1.16089344E-4],"categories":[],"categories_nodes":[],"categories_segments":[],"categories_sizes":[],"default_left":[0],"id":153,"left_children":[-1],"loss_changes":[0E0],"parents":[2147483647],"right_children":[-1],"split_conditions":[3.4826804E-5],"split_indices":[0],"split_type":[0],"sum_hessian":[1.9678062E0],"tree_param":{"num_deleted":"0","num_feature":"768","num_nodes":"1","size_leaf_vector":"0"}},{"base_weights":[-9.51803E-5],"categories":[],"categories_nodes":[],"categories_segments":[],"categories_sizes":[],"default_left":[0],"id":154,"left_children":[-1],"loss_changes":[0E0],"parents":[2147483647],"right_children":[-1],"split_conditions":[-2.8554092E-5],"split_indices":[0],"split_type":[0],"sum_hessian":[1.8164297E0],"tree_param":{"num_deleted":"0","num_feature":"768","num_nodes":"1","size_leaf_vector":"0"}},{"base_weights":[-2.5747291E-5],"categories":[],"categories_nodes":[],"categories_segments":[],"categories_sizes":[],"default_left":[0],"id":155,"left_children":[-1],"loss_changes":[0E0],"parents":[2147483647],"right_children":[-1],"split_conditions":[-7.7241875E-6],"split_indices":[0],"split_type":[0],"sum_hessian":[1.980383E0],"tree_param":{"num_deleted":"0","num_feature":"768","num_nodes":"1","size_leaf_vector":"0"}},{"base_weights":[9.894871E-5],"categories":[],"categories_nodes":[],"categories_segments":[],"categories_sizes":[],"default_left":[0],"id":156,"left_children":[-1],"loss_changes":[0E0],"parents":[2147483647],"right_children":[-1],"split_conditions":[2.9684614E-5],"split_indices":[0],"split_type":[0],"sum_hessian":[1.9678094E0],"tree_param":{"num_deleted":"0","num_feature":"768","num_nodes":"1","size_leaf_vector":"0"}},{"base_weights":[-8.149425E-5],"categories":[],"categories_nodes":[],"categories_segments":[],"categories_sizes":[],"default_left":[0],"id":157,"left_children":[-1],"loss_changes":[0E0],"parents":[2147483647],"right_children":[-1],"split_conditions":[-2.4448274E-5],"split_indices":[0],"split_type":[0],"sum_hessian":[1.8164268E0],"tree_param":{"num_deleted":"0","num_feature":"768","num_nodes":"1","size_leaf_vector":"0"}},{"base_weights":[-2.132031E-5],"categories":[],"categories_nodes":[],"categories_segments":[],"categories_sizes":[],"default_left":[0],"id":158,"left_children":[-1],"loss_changes":[0E0],"parents":[2147483647],"right_children":[-1],"split_conditions":[-6.396093E-6],"split_indices":[0],"split_type":[0],"sum_hessian":[1.9803857E0],"tree_param":{"num_deleted":"0","num_feature":"768","num_nodes":"1","size_leaf_vector":"0"}},{"base_weights":[8.418273E-5],"categories":[],"categories_nodes":[],"categories_segments":[],"categories_sizes":[],"default_left":[0],"id":159,"left_children":[-1],"loss_changes":[0E0],"parents":[2147483647],"right_children":[-1],"split_conditions":[2.525482E-5],"split_indices":[0],"split_type":[0],"sum_hessian":[1.9678113E0],"tree_param":{"num_deleted":"0","num_feature":"768","num_nodes":"1","size_leaf_vector":"0"}},{"base_weights":[-6.999561E-5],"categories":[],"categories_nodes":[],"categories_segments":[],"categories_sizes":[],"default_left":[0],"id":160,"left_children":[-1],"loss_changes":[0E0],"parents":[2147483647],"right_children":[-1],"split_conditions":[-2.0998683E-5],"split_indices":[0],"split_type":[0],"sum_hessian":[1.8164229E0],"tree_param":{"num_deleted":"0","num_feature":"768","num_nodes":"1","size_leaf_vector":"0"}},{"base_weights":[-1.7611737E-5],"categories":[],"categories_nodes":[],"categories_segments":[],"categories_sizes":[],"default_left":[0],"id":161,"left_children":[-1],"loss_changes":[0E0],"parents":[2147483647],"right_children":[-1],"split_conditions":[-5.283521E-6],"split_indices":[0],"split_type":[0],"sum_hessian":[1.9803877E0],"tree_param":{"num_deleted":"0","num_feature":"768","num_nodes":"1","size_leaf_vector":"0"}},{"base_weights":[7.1625036E-5],"categories":[],"categories_nodes":[],"categories_segments":[],"categories_sizes":[],"default_left":[0],"id":162,"left_children":[-1],"loss_changes":[0E0],"parents":[2147483647],"right_children":[-1],"split_conditions":[2.148751E-5],"split_indices":[0],"split_type":[0],"sum_hessian":[1.967813E0],"tree_param":{"num_deleted":"0","num_feature":"768","num_nodes":"1","size_leaf_vector":"0"}},{"base_weights":[-6.009359E-5],"categories":[],"categories_nodes":[],"categories_segments":[],"categories_sizes":[],"default_left":[0],"id":163,"left_children":[-1],"loss_changes":[0E0],"parents":[2147483647],"right_children":[-1],"split_conditions":[-1.8028077E-5],"split_indices":[0],"split_type":[0],"sum_hessian":[1.81642E0],"tree_param":{"num_deleted":"0","num_feature":"768","num_nodes":"1","size_leaf_vector":"0"}},{"base_weights":[-1.4625637E-5],"categories":[],"categories_nodes":[],"categories_segments":[],"categories_sizes":[],"default_left":[0],"id":164,"left_children":[-1],"loss_changes":[0E0],"parents":[2147483647],"right_children":[-1],"split_conditions":[-4.387691E-6],"split_indices":[0],"split_type":[0],"sum_hessian":[1.980389E0],"tree_param":{"num_deleted":"0","num_feature":"768","num_nodes":"1","size_leaf_vector":"0"}},{"base_weights":[6.104591E-5],"categories":[],"categories_nodes":[],"categories_segments":[],"categories_sizes":[],"default_left":[0],"id":165,"left_children":[-1],"loss_changes":[0E0],"parents":[2147483647],"right_children":[-1],"split_conditions":[1.8313774E-5],"split_indices":[0],"split_type":[0],"sum_hessian":[1.967815E0],"tree_param":{"num_deleted":"0","num_feature":"768","num_nodes":"1","size_leaf_vector":"0"}},{"base_weights":[-5.1443963E-5],"categories":[],"categories_nodes":[],"categories_segments":[],"categories_sizes":[],"default_left":[0],"id":166,"left_children":[-1],"loss_changes":[0E0],"parents":[2147483647],"right_children":[-1],"split_conditions":[-1.543319E-5],"split_indices":[0],"split_type":[0],"sum_hessian":[1.8164182E0],"tree_param":{"num_deleted":"0","num_feature":"768","num_nodes":"1","size_leaf_vector":"0"}},{"base_weights":[-1.21568555E-5],"categories":[],"categories_nodes":[],"categories_segments":[],"categories_sizes":[],"default_left":[0],"id":167,"left_children":[-1],"loss_changes":[0E0],"parents":[2147483647],"right_children":[-1],"split_conditions":[-3.6470567E-6],"split_indices":[0],"split_type":[0],"sum_hessian":[1.9803903E0],"tree_param":{"num_deleted":"0","num_feature":"768","num_nodes":"1","size_leaf_vector":"0"}},{"base_weights":[5.1803177E-5],"categories":[],"categories_nodes":[],"categories_segments":[],"categories_sizes":[],"default_left":[0],"id":168,"left_children":[-1],"loss_changes":[0E0],"parents":[2147483647],"right_children":[-1],"split_conditions":[1.5540954E-5],"split_indices":[0],"split_type":[0],"sum_hessian":[1.9678154E0],"tree_param":{"num_deleted":"0","num_feature":"768","num_nodes":"1","size_leaf_vector":"0"}},{"base_weights":[-4.4165976E-5],"categories":[],"categories_nodes":[],"categories_segments":[],"categories_sizes":[],"default_left":[0],"id":169,"left_children":[-1],"loss_changes":[0E0],"parents":[2147483647],"right_children":[-1],"split_conditions":[-1.32497935E-5],"split_indices":[0],"split_type":[0],"sum_hessian":[1.8164161E0],"tree_param":{"num_deleted":"0","num_feature":"768","num_nodes":"1","size_leaf_vector":"0"}},{"base_weights":[-9.993996E-6],"categories":[],"categories_nodes":[],"categories_segments":[],"categories_sizes":[],"default_left":[0],"id":170,"left_children":[-1],"loss_changes":[0E0],"parents":[2147483647],"right_children":[-1],"split_conditions":[-2.998199E-6],"split_indices":[0],"split_type":[0],"sum_hessian":[1.9803917E0],"tree_param":{"num_deleted":"0","num_feature":"768","num_nodes":"1","size_leaf_vector":"0"}},{"base_weights":[4.4211203E-5],"categories":[],"categories_nodes":[],"categories_segments":[],"categories_sizes":[],"default_left":[0],"id":171,"left_children":[-1],"loss_changes":[0E0],"parents":[2147483647],"right_children":[-1],"split_conditions":[1.3263361E-5],"split_indices":[0],"split_type":[0],"sum_hessian":[1.9678173E0],"tree_param":{"num_deleted":"0","num_feature":"768","num_nodes":"1","size_leaf_vector":"0"}},{"base_weights":[-3.7852886E-5],"categories":[],"categories_nodes":[],"categories_segments":[],"categories_sizes":[],"default_left":[0],"id":172,"left_children":[-1],"loss_changes":[0E0],"parents":[2147483647],"right_children":[-1],"split_conditions":[-1.1355866E-5],"split_indices":[0],"split_type":[0],"sum_hessian":[1.8164148E0],"tree_param":{"num_deleted":"0","num_feature":"768","num_nodes":"1","size_leaf_vector":"0"}},{"base_weights":[-8.21815E-6],"categories":[],"categories_nodes":[],"categories_segments":[],"categories_sizes":[],"default_left":[0],"id":173,"left_children":[-1],"loss_changes":[0E0],"parents":[2147483647],"right_children":[-1],"split_conditions":[-2.465445E-6],"split_indices":[0],"split_type":[0],"sum_hessian":[1.9803932E0],"tree_param":{"num_deleted":"0","num_feature":"768","num_nodes":"1","size_leaf_vector":"0"}},{"base_weights":[3.7595353E-5],"categories":[],"categories_nodes":[],"categories_segments":[],"categories_sizes":[],"default_left":[0],"id":174,"left_children":[-1],"loss_changes":[0E0],"parents":[2147483647],"right_children":[-1],"split_conditions":[1.12786065E-5],"split_indices":[0],"split_type":[0],"sum_hessian":[1.967818E0],"tree_param":{"num_deleted":"0","num_feature":"768","num_nodes":"1","size_leaf_vector":"0"}},{"base_weights":[-3.2461387E-5],"categories":[],"categories_nodes":[],"categories_segments":[],"categories_sizes":[],"default_left":[0],"id":175,"left_children":[-1],"loss_changes":[0E0],"parents":[2147483647],"right_children":[-1],"split_conditions":[-9.738416E-6],"split_indices":[0],"split_type":[0],"sum_hessian":[1.8164133E0],"tree_param":{"num_deleted":"0","num_feature":"768","num_nodes":"1","size_leaf_vector":"0"}},{"base_weights":[-6.8469735E-6],"categories":[],"categories_nodes":[],"categories_segments":[],"categories_sizes":[],"default_left":[0],"id":176,"left_children":[-1],"loss_changes":[0E0],"parents":[2147483647],"right_children":[-1],"split_conditions":[-2.0540922E-6],"split_indices":[0],"split_type":[0],"sum_hessian":[1.9803935E0],"tree_param":{"num_deleted":"0","num_feature":"768","num_nodes":"1","size_leaf_vector":"0"}},{"base_weights":[3.2070766E-5],"categories":[],"categories_nodes":[],"categories_segments":[],"categories_sizes":[],"default_left":[0],"id":177,"left_children":[-1],"loss_changes":[0E0],"parents":[2147483647],"right_children":[-1],"split_conditions":[9.62123E-6],"split_indices":[0],"split_type":[0],"sum_hessian":[1.9678193E0],"tree_param":{"num_deleted":"0","num_feature":"768","num_nodes":"1","size_leaf_vector":"0"}},{"base_weights":[-2.7935757E-5],"categories":[],"categories_nodes":[],"categories_segments":[],"categories_sizes":[],"default_left":[0],"id":178,"left_children":[-1],"loss_changes":[0E0],"parents":[2147483647],"right_children":[-1],"split_conditions":[-8.380727E-6],"split_indices":[0],"split_type":[0],"sum_hessian":[1.8164117E0],"tree_param":{"num_deleted":"0","num_feature":"768","num_nodes":"1","size_leaf_vector":"0"}},{"base_weights":[-5.6015697E-6],"categories":[],"categories_nodes":[],"categories_segments":[],"categories_sizes":[],"default_left":[0],"id":179,"left_children":[-1],"loss_changes":[0E0],"parents":[2147483647],"right_children":[-1],"split_conditions":[-1.680471E-6],"split_indices":[0],"split_type":[0],"sum_hessian":[1.9803947E0],"tree_param":{"num_deleted":"0","num_feature":"768","num_nodes":"1","size_leaf_vector":"0"}},{"base_weights":[2.7274535E-5],"categories":[],"categories_nodes":[],"categories_segments":[],"categories_sizes":[],"default_left":[0],"id":180,"left_children":[-1],"loss_changes":[0E0],"parents":[2147483647],"right_children":[-1],"split_conditions":[8.182361E-6],"split_indices":[0],"split_type":[0],"sum_hessian":[1.9678198E0],"tree_param":{"num_deleted":"0","num_feature":"768","num_nodes":"1","size_leaf_vector":"0"}},{"base_weights":[-2.3867111E-5],"categories":[],"categories_nodes":[],"categories_segments":[],"categories_sizes":[],"default_left":[0],"id":181,"left_children":[-1],"loss_changes":[0E0],"parents":[2147483647],"right_children":[-1],"split_conditions":[-7.1601335E-6],"split_indices":[0],"split_type":[0],"sum_hessian":[1.8164114E0],"tree_param":{"num_deleted":"0","num_feature":"768","num_nodes":"1","size_leaf_vector":"0"}},{"base_weights":[-4.6753694E-6],"categories":[],"categories_nodes":[],"categories_segments":[],"categories_sizes":[],"default_left":[0],"id":182,"left_children":[-1],"loss_changes":[0E0],"parents":[2147483647],"right_children":[-1],"split_conditions":[-1.4026109E-6],"split_indices":[0],"split_type":[0],"sum_hessian":[1.9803951E0],"tree_param":{"num_deleted":"0","num_feature":"768","num_nodes":"1","size_leaf_vector":"0"}},{"base_weights":[2.3339071E-5],"categories":[],"categories_nodes":[],"categories_segments":[],"categories_sizes":[],"default_left":[0],"id":183,"left_children":[-1],"loss_changes":[0E0],"parents":[2147483647],"right_children":[-1],"split_conditions":[7.0017218E-6],"split_indices":[0],"split_type":[0],"sum_hessian":[1.967821E0],"tree_param":{"num_deleted":"0","num_feature":"768","num_nodes":"1","size_leaf_vector":"0"}},{"base_weights":[-2.0516865E-5],"categories":[],"categories_nodes":[],"categories_segments":[],"categories_sizes":[],"default_left":[0],"id":184,"left_children":[-1],"loss_changes":[0E0],"parents":[2147483647],"right_children":[-1],"split_conditions":[-6.15506E-6],"split_indices":[0],"split_type":[0],"sum_hessian":[1.8164103E0],"tree_param":{"num_deleted":"0","num_feature":"768","num_nodes":"1","size_leaf_vector":"0"}},{"base_weights":[-3.7343257E-6],"categories":[],"categories_nodes":[],"categories_segments":[],"categories_sizes":[],"default_left":[0],"id":185,"left_children":[-1],"loss_changes":[0E0],"parents":[2147483647],"right_children":[-1],"split_conditions":[-1.1202977E-6],"split_indices":[0],"split_type":[0],"sum_hessian":[1.9803963E0],"tree_param":{"num_deleted":"0","num_feature":"768","num_nodes":"1","size_leaf_vector":"0"}},{"base_weights":[1.9757279E-5],"categories":[],"categories_nodes":[],"categories_segments":[],"categories_sizes":[],"default_left":[0],"id":186,"left_children":[-1],"loss_changes":[0E0],"parents":[2147483647],"right_children":[-1],"split_conditions":[5.927184E-6],"split_indices":[0],"split_type":[0],"sum_hessian":[1.9678211E0],"tree_param":{"num_deleted":"0","num_feature":"768","num_nodes":"1","size_leaf_vector":"0"}},{"base_weights":[-1.7657836E-5],"categories":[],"categories_nodes":[],"categories_segments":[],"categories_sizes":[],"default_left":[0],"id":187,"left_children":[-1],"loss_changes":[0E0],"parents":[2147483647],"right_children":[-1],"split_conditions":[-5.297351E-6],"split_indices":[0],"split_type":[0],"sum_hessian":[1.8164095E0],"tree_param":{"num_deleted":"0","num_feature":"768","num_nodes":"1","size_leaf_vector":"0"}},{"base_weights":[-3.190918E-6],"categories":[],"categories_nodes":[],"categories_segments":[],"categories_sizes":[],"default_left":[0],"id":188,"left_children":[-1],